"('workclass', 'workclass')","('education', 'education')","('fnlwgt', 'fnlwgt')","('marital_status', 'marital_status')","('occupation', 'occupation')","('education_num', 'education_num')","('capital_gain', 'capital_gain')","('capital_loss', 'capital_loss')","('hours_per_week', 'hours_per_week')","('workclass', 'occupation')","('workclass', 'hours_per_week')","('workclass', 'capital_gain')","('education', 'workclass')","('capital_gain', 'capital_loss')","('hours_per_week', 'occupation')"
-16.58693159886316,-2.641646008811298,28.422564203486008,40.35251985255978,37.46249554253479,-4.115703386465739,-14.754267468536348,-15.269362587046642,-38.974223939527015,-50.79812588562014,-17.584364164488022,18.943402274008054,1.5244584751250576,-30.98423598386334,-10.42293572923764
-16.300650331167457,-0.3948480022488823,25.182089612821617,42.40390170612759,37.30408015114308,-4.233117385597479,-16.137910435269678,-15.775904105921265,-39.02953462618579,-49.326122778034495,-16.432509375403352,18.42585865214084,1.9717569442621838,-30.355612904353052,-9.962912425136789
-13.232381509530839,0.031111120404422987,26.436390215699205,41.99697117888995,35.850395283474114,-4.95595971408813,-15.562980466241148,-16.745287614383273,-38.4291991340087,-47.675542208968096,-19.1989285491891,16.09751468993421,0.891227078646463,-31.799163987868038,-9.429944728136919
-12.099879085754111,18.38668819303456,38.6695101332614,-47.67723327855274,7.2833704519304625,-21.84658941739841,30.356412310337383,20.910977281758118,10.525936643437362,-2.490936480051081,-17.093339293340474,-21.167820821582538,-0.5863299086204408,-1.3833816496459275,-2.242016698751576
-15.213683740896963,-1.984731350891472,25.796767662978144,40.71809386953416,38.430955369085645,-3.906204656668261,-16.42482957064677,-17.778909356837836,-38.68623689271672,-49.555803891739615,-19.222940139423642,17.70500600351281,1.6114801425787961,-30.08967567526888,-8.146420435635418
-1.3019559046583657,4.092369490366843,-11.926198901176326,20.72555206692865,-34.834147859185734,38.05430733062173,21.11183925896041,-2.560550328727025,15.639776949651743,21.793926526753516,-28.67451392224124,3.6545083265708485,-43.91207226037977,-5.793722600987097,-25.694554235498078
-1.1324527510998843,2.803752803558483,-10.995256489878557,20.282113600796823,-35.54650579556045,38.332144975975034,21.731783088229204,-3.529884556786969,15.152866939881433,19.85097271501614,-29.065149065073978,2.769164293459237,-42.76565535855634,-3.975416130570571,-26.165572741032303
12.28833003132122,-25.61000670344754,-15.14937666944269,-9.92539780366225,33.43315562157092,33.37967979318853,-44.00524319203837,42.817222301029815,29.327456790976537,-26.0520091076459,46.25509847182958,15.941446506599155,7.813995348554528,22.488256762926845,8.684950492710145
12.346154503944181,-25.743353843884165,-13.287035221441183,-11.383441554195734,34.664948551074005,32.78129612207336,-45.04938025117512,42.08355631597298,28.341647997314833,-23.549127469117956,45.730575493660744,16.467033177464653,7.168413289034352,21.0956011732879,8.688609852714936
13.517884359898968,-25.447896551783444,-11.789092678328348,-10.029770670857914,35.537503575054195,32.62582622404163,-45.25055975907349,43.67390489110015,30.391153108961582,-23.436341053828347,47.72457909277563,14.437335335828003,7.191472097090964,21.287543216293365,10.325134556891497
-0.7026201229859621,4.024675080128981,-12.19386293926735,19.92361550655598,-33.8858435393162,37.93379997736765,23.50039375275398,-2.0516578179871297,14.424453475923938,22.997817935960143,-27.19689705868662,3.6967644725077466,-44.11470739091683,-7.265083015860315,-24.41834282700209
-11.479880685664163,19.940460138044077,37.6591151748948,-46.358738337829095,7.315337535829432,-20.70269651012524,32.02365979306342,21.3964722319458,12.05084625813878,-1.932172241330202,-19.081311022235457,-19.931929101943787,-0.9763825740677171,-0.4885719469382267,-1.1722693813055254
-11.175942656724827,18.42391749148624,36.912790138593266,-46.542766949926836,6.690638772784264,-22.429091665102497,32.062455218410065,22.195285348656412,10.9896112311946,-4.116430458497389,-16.83098615010276,-20.602704207698373,0.3806037283522967,-1.925290228456192,-0.26929986441725007
-1.1198675761132895,2.965923959674686,-10.849796626310352,20.963340779843094,-35.695196871342645,38.76827972577643,22.053163347874612,-4.3347714596769,14.519810270663312,21.028442272257756,-27.93501515443807,3.2996226326469165,-43.170635920706644,-3.7244561048010087,-23.227504169606902
37.6121082718183,-24.492084724734223,21.09638210547736,6.348145400618843,-17.485964607994713,41.12864802211029,-46.25781930229741,1.7957725588191795,37.20594495261408,46.69966534145673,-27.8733792479247,-33.121567373353244,4.000639176160133,-2.9555353028875606,25.994239433460578
-15.72112965597204,-0.5293121635506275,28.245508888231445,40.66423543436696,37.954685056372675,-5.238144617872061,-15.652846657876571,-16.227740190382846,-39.1273897970812,-49.692024374670396,-19.141656790598635,18.447481437326257,-1.1255536626519942,-30.836263522380975,-9.61120396405333
19.784867153466916,-18.604113474189273,-4.810781553859556,-44.1694557402025,-38.884278517442326,-41.77690438897146,30.803598739077287,5.610605309966601,-45.749529625305605,49.17265099444147,-21.89095181405991,-5.775175077819209,28.98286096959243,20.190669248980324,-12.467046436869285
-14.54623060941099,-2.218317940172123,26.990182760435598,41.13257848818335,36.974314356165024,-4.918422704094351,-17.511973000755543,-14.290247966897892,-37.45290577607634,-50.26473948237703,-19.30098747678809,20.107943018803443,0.5328893592668542,-30.180688556156554,-12.144998202179368
36.27828293773182,-25.405972422243877,19.678389584463265,5.185290821275204,-16.539674414908486,41.88706990709145,-48.102639997718924,2.6424941856151642,35.960150989435455,46.28035517650865,-26.895513618162266,-33.335058391970556,2.9561204339727083,-3.0255877139926426,26.992598552176553
38.214373388916975,-25.194074802439975,20.583460197683,5.094333977265661,-17.235516198237388,42.6484107244864,-47.70193022537557,1.7423378317463272,35.83463243442625,48.11594809700034,-29.98623702184398,-32.246106314287495,3.978208618029151,-2.7509459015642577,27.17693188360964
19.67639339269022,-18.482013966023366,-8.183253332786018,-45.390897938163825,-42.516890643302695,-42.76784573179494,33.834883005277206,3.9488539044910214,-43.95770469794505,49.128126794842736,-21.728626229994084,-2.742358762411001,28.59122669656377,20.468067034182017,-13.235060247492799
20.19702164761794,-18.72474923758921,-5.373569545037517,-45.09497882983723,-41.345414426273706,-43.14547467183183,32.15808784672089,7.431485969958583,-43.93386670705661,49.4017163084778,-22.045470503424696,-4.8429502317360695,27.791928819202116,21.38296167379209,-13.386854258496854
13.960301588537098,-25.858987359084885,-14.867108206873057,-9.191077937717274,37.10364666914977,33.45273489490593,-45.29310891750825,42.25108409289417,30.36032786802501,-22.31449424183654,46.841915330597736,16.115988632682672,7.7959233042395395,20.320380822419327,9.275644357952906
-10.302905428502768,17.381527866621468,38.18035912757246,-47.22065020033493,7.30785028803645,-20.350790572660664,29.377501571571926,22.032191363434155,12.985772120828425,-0.2119975557778635,-15.826306110243335,-17.88119823987258,-0.5564012226987535,-1.2501385378475671,-1.420180336366354
18.849997427447693,-18.511885671005224,-4.982294389897872,-43.544864694174784,-40.243315204052166,-43.90497574022863,33.2371591694725,4.977935156854196,-44.37061934987501,49.284859996360204,-23.790687803166907,-2.423261797989884,26.65034021694712,21.22426896632789,-13.940628346976666
-1.2752997536766042,2.4760659243823007,-11.658224456262209,20.67292045115672,-34.01784093731027,36.81805703038047,21.95056932826483,-2.919652088477632,14.654734618201628,23.007274329969526,-27.325626903380492,4.924715926071187,-41.866573060398714,-4.859718907418868,-23.879067733514873
-15.642104070860725,-1.9664251044337073,27.91611317985309,41.50817160248861,37.23117607667147,-3.79058374106648,-15.386103790441997,-15.023762574451037,-37.47317177452341,-48.12557401231203,-21.02618252821988,19.767492259046783,1.145199676564873,-31.87518954237059,-10.019755999309698
13.711239256479523,-25.86119710391308,-14.102816270484524,-9.773124494327936,33.22418847951982,31.601559284843425,-44.562905439895076,44.08074548444529,29.434554708159098,-26.329543897055178,45.45272643706842,15.03805237938606,7.243909567148928,21.094623686928625,10.45399966947063
-1.4877695163907134,0.7016484378377048,-10.507241542027337,20.625881066494685,-34.55571449193102,36.13727525724973,21.430108193496487,-3.3945765352733637,16.14605855188026,21.271084953598567,-28.547055903822923,5.066844226749799,-43.977687040602575,-4.5257768980979876,-24.719538218140148
18.583555857878686,-19.475082214786713,-6.622256072081317,-43.26552549128478,-39.45124758268986,-42.955556961319765,33.799724821611505,6.944149735070567,-44.04704406939697,49.90216372169843,-21.97624668640414,-3.006811600866084,28.0401456116303,19.2013758111912,-12.33460465651709
-2.0052178805249348,4.33924563620768,-10.827340175877506,19.125406158383026,-36.20540901568833,39.13304042234504,20.76406376565239,-2.0911882318978394,15.07969312751591,20.234412069881568,-26.891642811751957,2.844975713685975,-42.843824861305066,-4.840936439423869,-24.79268024628022
19.475212565128434,-19.12219838887198,-8.19757242467672,-44.20388611749535,-40.223966515913695,-42.59478103472763,31.822132769545235,5.3944010821904165,-44.038979573575325,50.21808670076482,-21.90400361500767,-2.9285441603371414,27.003163502977042,18.485615592007118,-13.167081338510604
-10.5050512838458,18.729613697126904,39.114011241015824,-47.145037352685485,8.632641932123882,-22.96919598670214,31.622420779813677,21.393290415930096,12.981834931948688,-3.224078849323064,-18.96979950626714,-22.41103834952965,-0.272273234531501,-1.011350329194461,-2.1885106244693753
35.45018982829463,-25.84764985728809,19.34815026268308,5.798180536115971,-17.752709942205595,42.56924690054136,-47.64964338781797,2.4837854841318734,36.95672872752082,47.58852569893848,-28.619051017082228,-32.235209284829395,4.4486771549728505,-2.0860744344771813,27.62826218769726
35.613811139307934,-24.96360911956971,18.155488242491924,4.212733188229244,-17.989362967509294,41.5151009760225,-46.81486680027893,1.0634112844000305,36.51092790505829,45.102693747772804,-27.979432270235797,-33.05651721716832,2.6368445033468877,-3.7934033224412462,26.617012993189483
19.25022099724908,-19.636635409960885,-5.5028090154047185,-45.855754476841575,-40.52754080733601,-42.93796197182488,32.300464214229024,6.896969342131685,-43.41095095457639,48.34786252949513,-22.331728792381824,-2.2023796948945646,28.02633118042796,20.88250039868369,-13.424191334127642
-12.888491717054738,19.430383468951504,38.53256175423491,-49.34207247092229,8.436659132337812,-22.80547496202657,29.080348971994294,21.988319917759068,13.479427389596001,-1.425326731681344,-18.2247173223466,-21.155332803540503,-0.39859999917317757,-1.4659594782880605,-0.424441392131246
12.223071582399218,-25.306632830323352,-14.290131701970253,-13.055562467196966,34.078239959340586,31.041989601896717,-44.65071093141992,43.959076738504734,27.66765166924016,-22.96138989744407,47.42265625496635,16.583246517023333,7.20727282541822,23.392409018855776,10.542720189285749
35.474894897812156,-25.552047912346893,20.73488844221701,5.837453201275135,-17.945401080398135,41.69366463374927,-47.82944787378613,2.135811532051235,35.16079953303015,47.08242932495567,-29.19245340163028,-30.893327467764,2.0831478614887144,-1.7832146609251494,25.40755573990031
36.787427848781704,-23.40769918720875,21.023269354285496,4.760731082960566,-15.750784363540822,41.680740256446896,-47.63271154461945,1.4731490981077981,37.35816340070001,44.78961741802098,-28.528038331153574,-33.80147715962751,1.9336893041297125,-1.422388779642823,26.6999478607228
-0.44009781159633266,2.5200561582907994,-12.147844874187571,19.453614407859384,-36.23115936645021,37.533800944137916,22.321489577562776,-0.7338141865609513,16.17485115422486,20.39948629665616,-28.949154357694802,3.0611038445379273,-43.61535287555222,-5.062140985943143,-25.180584816545252
19.533944154215305,-18.32906899989992,-7.1864131420028645,-46.22203414932928,-38.60348927128349,-44.56541592595507,33.450020010676305,3.5324490203040373,-42.953536224661974,47.81359807943213,-22.03209263466801,-4.942918682477955,29.124568332995917,20.62233212019599,-14.747968115343502
37.20538478414696,-23.940206654082893,20.52242104632617,4.643262680825289,-17.0842240831673,42.98184052754311,-48.37808943211828,2.249241863687584,37.08279367199812,46.1906877501832,-29.068255727754817,-31.667772745969256,3.271509207470397,-2.2261140480617954,25.360600320791043
-10.458840895885988,19.253087959436044,35.87330732170088,-45.702908957176284,8.40441859673462,-21.37563963622954,31.092604992639487,19.584352537697104,14.581590408752836,-2.448544388961909,-16.720974733513643,-21.436924987104593,-1.3606247585808748,-3.7640755633205267,1.0322089561965768
37.59100612076758,-26.697569312551344,21.032182581784905,6.463380699556467,-16.060337395939676,44.0038256107875,-48.23004421076144,3.6026406339962547,36.35279702659039,45.84812997491617,-28.2320648992215,-34.986175852629046,3.2116450216596952,-5.143998312148667,27.158035089635757
-14.955339007442491,-1.1375960338069724,24.767163377475047,41.68913465299059,37.93475911719192,-6.091021132168149,-16.17317529858546,-14.119114694916146,-38.05482745444341,-49.58084858442677,-19.327205773951345,18.67796183487477,1.1882168097373094,-31.305065901143433,-9.458654809988719
-0.8582167586901849,3.2282807646585843,-13.32664717993146,21.80332130822835,-34.68470996319216,38.106093487993796,20.644017974428973,-2.2945247700543088,14.718133648281183,19.074904942605727,-28.102104587579987,3.157562970564736,-43.14610608202734,-5.731442295977345,-23.62209071665572
13.81194684330106,-26.721349272354043,-14.016718311836549,-10.146301957104804,34.88926452645187,32.44541032179678,-44.94773725018656,44.007470731939,29.55221901076882,-23.55103388682686,46.99476008416121,16.821696523923332,7.676531271576664,21.96768730564505,9.681718263767332
-16.96333777498603,-0.310915115516212,26.828402121323307,41.94704277771965,37.51576170733209,-4.533948363019424,-14.83993623711041,-17.123161311269307,-38.409286506665325,-50.14320972871632,-18.6399629874123,19.79284365950887,1.9323380042348892,-32.08049377660246,-7.9906883349154825
-16.20296250316588,-2.4381837771861665,26.681804230488275,38.675323562337155,36.55346355407897,-6.050258049752493,-16.628951697907578,-17.58202546859169,-40.69492018662571,-50.134818301358024,-19.471229256046506,18.283805721500492,0.9198703611231993,-29.808100425006472,-12.242170675234506
14.075947101657666,-25.265997923093344,-16.01027595858477,-9.789917623476821,32.85898973734736,30.123260454982226,-46.29931715324354,41.64574700010356,29.264553662017715,-25.044081743791512,47.47701387498773,15.986196651307255,7.582271501118024,21.94748518963693,9.950601774847524
19.379794715573908,-19.535720948229926,-7.998865748016632,-46.13771883475743,-41.56479650384301,-41.538737291889355,34.17114773682238,5.0271215936602305,-44.23199549432625,49.82283412945433,-23.419980763624544,-4.935984361262616,27.29410482431701,20.634876319400952,-11.48239247526117
-11.527905489098819,19.739700164415368,37.81237395060467,-47.56532130183234,9.226778276669744,-21.67098752996612,31.5382934575967,21.88025082124407,13.88923122462547,-3.2169598088716507,-16.92544679170109,-21.00832862042523,0.6259612595446116,-2.6131071426744734,0.6387837522207815
20.351033273795753,-17.01704922599945,-6.973794440911904,-44.090788683627245,-41.77006323635892,-43.06910475921002,32.828984225050164,5.303093335646534,-45.552948634210175,49.24636616464613,-20.57478202215996,-4.082848521295061,29.289073376417843,21.72490146584236,-13.460534958098044
-11.64378297035792,19.888667203161432,39.605370118886626,-45.48934256649613,7.00404438989176,-22.91035478287571,30.28356635800786,19.915939520957398,13.9413245091537,-1.808997296796338,-17.898375727345478,-20.25754998228612,-1.50124520771559,-1.540339694716566,-2.3941184418025006
37.27381066214144,-24.231161231980746,21.30437383369651,4.8338425937008695,-18.254962038465138,42.962923746425915,-46.88688833828649,2.7659203319487102,36.516895764727934,45.805986226540384,-29.27077078854195,-33.78562437718024,4.356557591133382,-2.20948196220431,26.746900069566106
19.469552877499353,-19.886831061371666,-7.188574969493114,-43.58804425873016,-38.243431770081216,-43.658587772647046,32.459622829231286,5.71049906323562,-43.21787524355837,48.80151424536547,-23.145532873155393,-3.7648152748248793,29.818893121729506,21.23435558870706,-13.86372954570069
37.858938559820075,-26.92706952740913,20.596213278253693,5.119570729346613,-19.18607782520954,42.53200450007357,-47.42443278801714,2.2948319523543024,34.79554282064117,47.52950549101111,-28.150179963434237,-32.10929666737831,2.18107757529214,-2.813044794481714,27.125657416949984
11.759068873059963,-23.508933549202776,-12.1509334168902,-9.32134666609215,33.31916248518113,33.24131062294973,-44.77799391625762,42.416229825649026,28.64089184688204,-25.091613207556893,45.39460970019205,16.94193747528637,7.621859274846841,21.068075106116073,8.789611831496902
38.00360913219299,-25.417854685720858,21.23946927316537,5.378217160954545,-16.36321474597128,42.86185858316421,-46.76133807954359,1.3460459468881347,36.81173757783727,46.196561400678924,-27.164480448051318,-32.13013152659651,1.9793681706417374,-1.0338190496487387,27.28199212437379
-11.475293992470926,19.314639194897943,38.029883634097175,-46.50288079459872,9.341777647175796,-21.65348253841559,32.096778472926204,22.587541339839333,11.897968544399633,0.33433137939583,-18.534775805244305,-23.192963997666666,-0.38702180136595066,-1.4706958821718819,-0.8210424052204972
17.660792362709888,-18.833579723719932,-7.912778470798713,-43.8879849075843,-40.09798032486862,-43.22915070163821,33.958029770544876,5.552004875070399,-42.1875449905774,48.21328828449249,-19.28943789719434,-3.2596216623411585,26.604459511805405,19.737961456059022,-14.031361961526533
36.026862454946745,-24.78186394947146,19.984314344311432,3.6372395071415053,-17.454217614785506,40.38359748372506,-48.13384602156785,1.7039923161396828,35.93973475164978,44.30848671333864,-27.072662040860763,-32.49586060126729,2.5290161928990265,-2.641441762513141,26.863874925100102
-0.9520224303740509,2.791488831410592,-11.901496135272387,21.040210658743714,-34.39672876658556,36.34556893311939,22.19271657972512,-2.03461633721559,12.908702741094663,20.85277908634248,-27.720599624025038,3.149859755962099,-41.872477192708054,-6.142194135759624,-22.849390704926922
38.34323718693814,-26.827716409166218,21.083170130403662,2.6316106318210455,-16.74562681290678,43.53734367275859,-46.195686606767495,1.2082326370697944,33.69968491462938,45.09442611712221,-28.011139189798854,-32.99423442305623,2.585019192992055,-4.0595854754316525,27.64593537283176
-10.202222233101823,18.90853389079616,36.885408768275504,-46.33259443089558,7.965995226368285,-23.124018423168923,27.52610372174226,20.513098439029267,11.49838973804571,-2.0565319149347903,-16.155590394011945,-22.019822028083126,-1.2918956516839568,0.7223285108964854,-1.3481557454631763
36.789948790391286,-24.173070855861297,21.43889075933694,4.147778650321998,-16.204068304293383,41.714608013537934,-46.87954732386567,0.9052030578736852,35.84215804593525,45.53915815268903,-28.04430239317686,-33.63600603670205,3.276572462708643,-3.7317213566541536,28.121432303984697
-10.077082177608638,18.564089280980085,37.64898663206302,-47.793953863679555,8.558305302729446,-21.809626857164023,29.93346201025638,22.62562595703099,14.770220351026214,-2.156199678359997,-18.24507705403982,-19.936530961212018,0.575104704206219,-1.6017347091641325,1.0652093713869761
-0.8014261010972537,2.609424929488656,-10.772515909854182,18.625172098882942,-35.34245401946345,36.36872805112029,22.942958278255695,-2.0422780297440726,14.080546831618939,20.313938424993697,-29.99643585766959,2.823066329483587,-43.165753124868516,-4.788722749831072,-23.22229904552502
-16.76710704138517,-2.9862040902459333,25.91046986913703,41.659876020197835,35.127709497615925,-4.855687197901484,-15.804291817340816,-15.85149138413075,-36.460336077022575,-48.9075048953367,-18.96047323858045,17.421537242689695,1.4792572330989304,-30.268197581042067,-10.95471069093862
17.967138441532395,-19.215943838647398,-7.840058184729115,-45.34794777144499,-38.19450589894406,-43.53826143653629,34.535257119685724,5.228937469569856,-45.26609135207747,47.37049118286376,-19.853001879822866,-4.416112799798088,27.646576727948943,20.903941875312015,-13.030152997309838
20.362064261520068,-17.592412406095598,-6.481340318973078,-44.67264973209929,-39.12349633149262,-42.90824526699379,33.16898577152774,5.408073641419485,-43.27685719120341,49.1326765735698,-21.785533399398485,-3.02330861801828,26.079171390207215,18.821979205898817,-13.230336114464196
-10.946799318715751,17.12047104013256,37.59443262993822,-47.01357832741612,8.271995766091537,-23.578197637807115,30.459484244021038,22.950554284633576,13.492391709135315,-2.614738969043364,-20.265897197167384,-21.90757963816322,-0.2683176305788624,0.5883875350376981,-3.5147105865073525
-14.917122823986839,-0.25341377422655753,28.262196335365708,41.15683052062381,35.92587760756363,-4.586099713832523,-15.811678862182216,-15.281389439207647,-39.16894792480398,-50.10392395450053,-19.000118945804854,20.04201366929885,1.8969200554158594,-30.676151702307124,-11.865325178048302
18.717665281085036,-21.601114047615084,-7.49662508841319,-46.58626017400612,-39.07887496361125,-43.0474907322472,32.07650569386333,4.641457206317288,-42.22103180976322,49.626779045761786,-21.902667592558387,-5.430482579132241,28.76046254252024,21.80314202667848,-11.956211615361909
17.824130101067055,-18.696928552549807,-8.98677675429474,-43.299661362317245,-39.7769758260688,-42.92198515823554,33.010194261339564,4.9086352875602115,-44.579835857732334,50.0136937397646,-21.919689485315175,-6.618400191231686,27.6702335849617,20.36966707358859,-12.622613276306472
18.70173063795039,-18.659873936287752,-5.270117336275579,-46.57816397236963,-41.32166282445919,-43.55873656897668,33.0979209302726,7.1349331821410615,-43.76634656216022,50.263887914956,-23.35409353894448,-2.9879374873890883,29.047849342843683,20.92262254254732,-12.2486665009999
12.427562873969281,-22.89401564893692,-14.888360585110288,-8.307519097483086,35.12343965524255,31.38530142314652,-45.616767739242434,43.41033781115217,28.74969535919728,-21.521132755543263,48.544176568920456,17.650434162532285,7.744514474748931,24.260103737361405,8.485307980373783
-14.828311249317165,1.1434844469265664,25.428920469345897,41.899249856509364,36.513630901692956,-6.961091458880668,-16.192311268338702,-15.79686014967376,-39.91713800622268,-49.52561194827035,-20.43118262705667,19.46497444678817,1.1331691638777779,-31.28549053668994,-10.930652996282323
36.829216033758904,-24.61172975211134,20.42974423984851,6.235611304039604,-17.372714477123896,42.13110248404944,-45.763640182339365,2.8762354986390433,35.835240798324016,44.664704427854836,-27.3678788793714,-35.04085326982588,3.3940565182098745,-2.009374941404887,27.90299276060347
-11.570848214641655,18.946611482093637,37.895459471985184,-45.05928036607321,7.8258469624888605,-21.22440743257369,33.13658358527246,19.760828233062387,11.623139520916542,-2.239215247846852,-17.676955156422448,-20.315208601456927,-2.2626236063195444,-1.8072654904154073,-1.2405518565133953
-10.556108542739155,17.346351331126176,37.91056372010485,-47.202501489229405,8.443434220677808,-22.933546852650025,33.87055353841247,20.881893710062066,10.678567729772574,-1.0561684229539172,-17.372133640221413,-20.857167362139755,-1.3539067016132358,-0.10193039082854338,-0.928453269227055
-10.962771224209519,19.346728134875253,38.57665151465284,-47.42426978471987,8.69433724065316,-21.8334093418285,31.39744734240852,21.848397248844346,13.52849395238082,-1.0217709910627404,-18.129457036822757,-20.322592717741852,-1.4586141917449442,-1.3397405807520804,-1.026905105608155
-12.117601282944591,19.70934989936068,39.021430421046034,-45.46683366197168,9.601850538733343,-20.241046774924673,30.81951520915744,20.38777986397602,14.758742883092568,-2.8349906915596814,-18.006672815240915,-21.833299286458555,-1.5592460439014322,0.4967971699567273,-0.07617316620336156
-1.9245685903742429,3.159298648896933,-12.087237093816533,17.92393394174985,-36.666182006499376,41.009012349816516,21.994591009847312,-2.4589891040323812,15.227495535841435,22.915900965042823,-26.5189720748426,4.426586798804712,-42.38764312458935,-5.805059153452605,-27.021227686144137
-16.61080696054316,-2.385755559067206,26.969207338379633,40.60956590891423,36.77746803940654,-3.841842378561261,-15.555896726542823,-15.795172043333295,-37.127848336799595,-49.528142019143,-18.680054581869175,20.162851411379567,2.535468533832935,-32.39606861165678,-12.406759502002409
-11.472922913936902,18.651205346132887,39.96824209369284,-47.5499811062082,6.2615319374393845,-22.998798777048354,31.544053443292494,21.816085075726832,12.094231691303676,-2.461752705631447,-18.190475855019734,-23.667187065016996,-0.4702166144686858,-1.8184908444682661,-1.3995233726656175
35.79831623465402,-26.356945567017412,21.149412789815912,5.70783361272857,-14.332830880617706,41.192702609316,-46.0659297272585,1.6564242926851729,36.91526371942174,46.85369222218015,-27.922016587271536,-34.20958363684549,3.9717264736036246,-2.9850913171345677,26.529828217418803
-1.165796630974399,2.2908365529683405,-11.421203453532755,20.777904504558773,-35.22742907484993,37.12123710284146,22.335562918725742,-4.450281855277709,17.039018560566884,21.173901674955758,-28.934619130638,3.0105579546945758,-41.98756093477034,-6.347412854498998,-25.722111511204414
14.179424670151686,-24.640036200853455,-13.26844732802998,-10.267398462313272,35.158272459324095,33.37052737630941,-45.25089175166855,43.865535517043156,27.83125345027142,-24.228425596052137,46.30380283294812,16.92909305628361,7.494857104911048,20.986195307356795,10.305370521243406
18.494345276052773,-18.36990066984958,-7.013188007868166,-47.41555541603028,-40.43526488872689,-42.23650578093442,34.054423280407306,3.9828180295780857,-43.70450275887712,48.995532290669814,-22.162427139068434,-3.6633509568223577,27.32066751604332,19.22252054223198,-12.650635166558907
37.04699681067111,-24.831377094981956,19.094911161901713,3.747642881896212,-18.613625348207307,41.20298600019962,-49.04911822789764,2.6270877468826144,37.85651080357817,45.20319125440647,-26.96401158753982,-31.95054472783501,4.917868234477062,-2.7640138641474454,27.71923800414991
17.389714263673525,-20.59524567653882,-5.652587824246501,-44.58932442746372,-42.187976283404424,-43.11245810396789,30.98513781447409,6.395560869158821,-44.96802412832134,48.90572692655702,-22.073993767258127,-3.603233302890954,28.78799607935211,20.372466176588702,-14.367444482390603
-10.784897926621928,20.890888468579725,38.18013827506559,-47.41497571920807,7.953619886964005,-22.829951355990158,31.780140790152192,23.766181240334703,12.808403075844039,-2.599019901814376,-17.254845038024946,-21.655592771681732,-0.41084758164752766,-1.8473811867984586,-1.313838272443278
38.627854133444735,-25.5491265985764,20.44449728383524,5.875230329951981,-18.572168614170245,41.122127160664526,-46.73895774346225,4.245193246846626,35.937175561209656,44.39937235949714,-26.625357362209662,-32.15056576406998,2.0629888475084317,-1.9941324627662862,26.78944863157333
-14.375847465119815,-1.8469994629854265,28.754698196331574,42.76638596672336,37.510519448925116,-4.276166729685051,-16.905046722323174,-16.396710542991723,-38.14607494870342,-49.448801333797846,-19.134332605890982,18.95390451865223,2.4381716017653865,-30.82841498245206,-10.279652653563641
37.616168128722634,-25.478152945693434,21.42472934199838,6.438276858117611,-17.811408247909608,41.61826241453438,-47.15432636950394,1.13203199751536,36.04734732961921,47.146267966604746,-27.71402006388358,-34.27562212757947,3.535454281706303,-1.810388261285755,27.72402019311435
19.06080413012655,-18.408230845089893,-7.760851983740666,-45.0680040468748,-40.70461062555642,-41.65500425853193,34.4721669239978,2.983982278935001,-43.418017969658436,48.559294685754466,-22.125740609990043,-3.923363870804929,27.51182721884608,19.65353099630237,-12.503070466566115
-17.17249055320641,-1.2514678195822806,26.347420298111086,40.04655988103531,36.9073278292065,-5.70986267083894,-18.574851063294236,-17.416099697891852,-38.51834256835024,-49.81886683051226,-19.795984863977345,18.778810456411936,1.6087539150928383,-31.852485758471616,-11.930281289458145
36.23000675814233,-25.00190523424843,19.650064024673153,5.102098271554427,-16.99438843666673,43.46683929408186,-47.84986939663749,3.045186891872179,36.53814517398567,46.15951021164975,-28.628787702898894,-32.60809886389609,2.833941641685834,-3.0908129636132777,28.08346896478464
12.140382386912442,-25.772973911563394,-13.809372240520768,-8.849246842925124,35.74558146862516,32.41267295899725,-46.04623803501427,42.422794847189266,29.16043141093561,-22.904861008084026,47.15771440025359,16.310237546399794,9.026712738200334,22.6399844477874,9.592369356092853
-13.111268568000545,-0.5953204724894356,26.371639419039834,42.04986714261569,37.0804532479029,-5.9348195239752375,-16.395792944871225,-15.446881864233465,-37.50594579986483,-48.58603956514785,-18.968223699844387,18.051661644939998,3.2911447199085817,-29.911618144968976,-7.436223111936176
0.3567287255433018,2.1959369755020632,-14.182604500365901,20.654417299293517,-34.49703038175968,38.466771715502475,22.253427642417527,-2.881195237485603,14.28553944597479,20.46174426686149,-28.1146720288952,3.241919522146314,-42.41768455854757,-4.436483082507699,-24.932353145467133
13.224830710479326,-26.468137617358835,-14.435391835647533,-9.21909257015989,36.905435016443505,32.86030661417693,-44.89617583342932,43.513351397045035,27.846488055481323,-22.308816320785695,47.25601012576639,16.84743034090108,8.652403473768551,22.483724646574757,8.026334899166313
-8.84419245029893,17.740389148189074,38.05931396554321,-47.404167755266315,8.504881425978951,-22.71713674262238,31.935595450129696,20.426020526921477,12.219736096307445,-1.3713602015491353,-19.765920872462797,-23.05357793489647,-1.6006689718024436,-1.4520373294904534,-1.2538208493257286
-11.553029381480028,20.096621507926862,37.57294076866623,-47.212661006809356,8.694764548448566,-21.07475625282678,30.745722911194424,20.840566585516417,13.103788450128443,-0.5718119972744491,-17.685473196114643,-20.35748763772765,-1.2883586094742203,-3.2874256030612212,-0.49451766895896254
-11.970725939372016,19.35314815203082,36.514155773158095,-46.6955278412502,6.961577219519283,-21.22108004424529,29.459008424441002,21.80101464672986,12.752082039874587,-1.3730464058716962,-17.258200380012763,-21.280973446700152,-1.5543050257729942,-0.9213603122771468,-1.5934097819206645
37.622720500019476,-26.318444152751546,19.339683124457295,6.273589130725609,-16.37360451310016,44.15302233802205,-48.276836242999764,1.1762469435918206,36.77152825966904,45.36833788211774,-28.943445233343237,-34.34187915825436,4.139555993286183,-2.4378819160090264,28.00497232678947
-15.901045412759673,-2.841154064475985,26.613955734877816,38.98546118766003,36.56608581332465,-4.836340920466369,-15.074426268466322,-16.985938806869434,-40.80245339267066,-49.50664307885819,-17.81229992785142,18.187715707771126,0.5883439812408453,-31.150127888535657,-9.338516910098992
-11.094122532633904,19.864607895370625,38.36097354051904,-49.03955857314659,10.890736654428785,-19.587669942388676,29.970141996015233,20.27650454466538,15.102669484726082,-1.4931200690479733,-19.742460717050548,-20.626819796022726,-1.3010314222872232,-0.47226118527435945,-1.4430997142510589
-10.561414001306963,17.411754298531342,38.8984629691509,-46.42385300154191,7.93134086997772,-21.929492927276343,30.14464788361798,20.56360780336031,12.766588265058697,-1.2227119054287352,-17.66116484318869,-20.424610817715482,-1.033908157044664,0.9611879442304647,-0.48530540936161326
18.210339143858267,-18.485261256949766,-6.670449133985671,-45.57934467618101,-41.02767230490829,-44.38216881405626,33.16584625400115,5.271893768088921,-43.554906152004236,49.74309737126214,-22.161853295170005,-3.397408118106049,27.62928197803551,19.86819869076917,-14.366446956439349
18.97840256471459,-18.446362365501493,-6.790013101458171,-46.453892088745654,-39.47517424913717,-42.133173938521125,33.10573111658592,5.0211597216054225,-45.69948515720742,51.25870213569467,-21.869142763965428,-4.8235369338847125,26.798863416787405,19.39343785377236,-14.03856405859272
-10.938168967572171,20.0644621482877,38.976516715028815,-45.73835756210521,8.620825817711424,-21.82586811736385,30.47946348276796,21.250191456566785,11.92014409835636,-1.5239371747028467,-19.03544366380874,-19.90031140661977,0.2668773605641068,-2.4223765608721224,-1.7504678092473283
18.236800066851767,-19.44581300969147,-7.508692438489714,-45.28124519910602,-40.48111206617696,-42.21408092368839,32.74240781729792,6.691812147847586,-41.946545363834765,48.65287559998423,-23.29540270925559,-4.7119893451244055,29.08024673420684,18.462461986179424,-14.480374656060393
-1.196174719090918,2.1517011088833633,-12.244600528458253,19.88746793160627,-34.42810496806265,37.86177234724697,21.943702900250514,-3.5099460788448744,16.093756596524283,20.31720457180098,-28.000748719466227,2.8868820964011395,-43.603312517260335,-5.000788853314839,-25.754249746406103
-17.846374031516675,-1.9346858596964542,25.464319360220667,41.100489484979676,38.26449514704203,-7.606121718796645,-15.164469699166018,-15.688029054123506,-38.77862412566796,-49.694202504770644,-17.608404207185735,18.130322577704604,2.3147714655546467,-30.092927357862575,-8.942224373113856
-14.610371682881825,-1.5277540071731144,26.399656328404088,43.300250007149586,37.04888393125563,-5.417338381769829,-14.069377194158747,-15.511220912647325,-39.220943234298076,-50.41641686717836,-22.014429071800443,17.879858774966316,1.3535016195960012,-31.31334611628799,-9.393769362464287
-15.604687099453688,-1.4523824655376987,27.284545022358067,40.479724648455296,36.77748894732818,-5.097054599061253,-15.991957958305786,-15.729254846525306,-39.033382404753496,-48.2959840945083,-19.357000551285385,18.548881584068642,0.9433539728637093,-31.464269649511845,-10.830398112394487
-9.422645858568256,18.486236356425376,39.195042458750805,-45.55952052680148,6.658574923046143,-23.081621119813484,31.19865842954506,19.904689170102007,13.04035158889656,-0.660963702413115,-17.15795495549332,-20.14136772147992,-1.2014496761098596,-1.5016425596526857,-1.2148673510456038
-14.647569646273352,-2.9877200874233947,26.868974578288384,40.25824183807451,37.74581652367197,-6.629787812003565,-16.71503380734505,-16.176739105764852,-39.10164434528599,-47.99683168866905,-17.147564164267777,20.364915297645044,-0.45233463860878453,-29.803854430545165,-8.866611024744131
-15.682683351592614,-0.046855551942008855,27.295623094369134,39.4826959856968,37.236693605026325,-5.441306238108004,-16.66780703985803,-14.485024962233943,-40.23026943678679,-47.11270348025429,-20.450268097964,18.9750569796982,1.2022736070957296,-30.85930738725989,-9.488963571432144
12.957836530322412,-26.742841140699227,-13.687508499615749,-10.910444810114527,33.921228933715184,31.29013996106074,-43.590235009588646,43.90691692036858,28.098220002968727,-24.412564328180963,49.53132880763239,16.035915436650576,6.697158378686204,21.541530089115962,8.838570090508503
13.399144949441359,-25.79824751994704,-15.534180426012492,-9.718974080392178,33.274609233145476,32.85833115337701,-44.82883456567998,43.50034389187088,28.679383860159213,-23.790006881190664,46.85731955974036,16.309658277553797,8.873034907906318,23.49227825773381,8.762717707990937
12.4918526272882,-24.896250689752527,-15.152294172537568,-9.757656710560989,34.13421105965647,32.20741274536286,-44.060427563868586,43.17910423269899,29.00882092343896,-25.10309333302698,49.29157466351326,16.333904540362436,8.660328646356431,20.580969263131152,11.408998533517059
-12.249274850320884,18.21875383187475,38.837164704150645,-47.67980724219343,8.262322971720108,-21.509010027411392,31.695145531879408,21.70868570917893,14.375114116464339,-2.9578187517763728,-17.157097803711427,-21.69953674638432,-1.0587214603548643,-1.005574035220493,-0.3657800932975265
37.223569167710394,-22.838568485810452,17.58124708901758,4.5621629150549,-18.588768921568388,41.25001314879779,-46.854740522952234,2.30993509884477,36.03833973231996,44.87915828999709,-26.772546350931442,-31.10729140073651,4.1819941202976745,-4.3650053266914774,27.95333008962313
17.628615039918177,-19.168852179514968,-6.911058059982347,-45.267595485634885,-39.514147698474986,-42.64835678150198,32.40312271232886,4.899174008177831,-44.2800626026034,48.06124839298605,-22.327261654355503,-3.176706655992647,27.892391368821283,19.84224190586136,-12.897205185718098
0.6698157536989982,4.223578815284647,-9.746508475751794,20.435765920417168,-36.01350991970398,36.87103847618964,20.65749027341831,-2.2963979092585114,14.568980924690468,19.883077140724403,-28.657382044445725,2.097215251666441,-43.173690971407474,-2.7978059238405995,-23.930350939036035
-12.053867732151513,18.132763304401088,38.7294730902657,-45.605369747452215,10.130135480273676,-22.50563595960864,29.547710638821805,21.338225556926552,13.484957314973332,-0.7050016004831416,-18.15162378102639,-22.166579283793407,-0.6014752552597737,-0.4010895639025097,-1.854306516045178
-0.6713950053110113,3.8321313012993765,-12.526920870893214,19.68176225467821,-33.933393215933535,35.792234266446165,23.36795745842219,-1.5891838697548346,16.029035955475813,20.286118385403544,-29.359728229783858,0.8615164664680264,-44.433439165426876,-6.320159557504671,-25.794266043013515
20.088853299314724,-18.382190047148,-7.424466104573158,-44.99494562366228,-40.60849180115578,-42.860012250109584,33.177970982664135,5.549035961692935,-43.771823720950565,47.41800311898106,-20.09472341365409,-2.593323282375196,27.878464765993424,21.395364532684745,-13.657696515565483
-13.311232026954523,19.0369398734666,36.7207611910644,-47.39734758446609,7.854657628669682,-22.119967305242255,31.244418854914752,20.532782521874907,12.743549556145243,-0.9839526022509268,-16.190999844413472,-21.18840526788018,-0.16881349354428177,-0.41186036347854027,-0.9597897665036017
-17.00953033613008,-1.293015813909924,26.696819949892813,44.01607594300374,35.6276019602755,-4.3627693051732415,-14.661185495618248,-17.448416899889693,-39.91768009846733,-48.55285232290155,-18.09373764890039,17.32235310701996,1.0218243456899827,-32.205590151523296,-10.604180596773395
-1.788225032792441,3.3508441793053803,-12.239155662761306,20.4255562922539,-33.61763725571977,39.154736157750456,21.78348661088209,-2.5265244514973824,15.09545596511664,20.4190296836978,-27.645122503289635,1.452777857874438,-43.810223372728665,-4.596780287531309,-25.365741767041843
-12.354882882143668,19.8814145100876,36.98463919983696,-49.19520275929286,7.41333464055725,-21.218392930696403,31.166776115684538,20.374436925241227,13.754642583923081,-1.522220547641659,-17.315188341305596,-20.30788562672187,-0.2932393799036528,-1.752993673224785,-0.8612364036243169
-10.694909656520295,19.160992331864747,38.6506564351712,-48.112645279160695,7.141746310665032,-23.03607051245633,32.09760847523512,19.259643554259007,13.999962570114874,-1.4384524859413976,-18.04020407200182,-19.686457680884658,0.698397995314868,-1.4389109410847771,0.4738583719373861
35.82125253913877,-24.908698973762846,20.314880844117972,7.918289623381079,-16.878442041919875,42.122540801974566,-46.795844087652,0.5869177849960527,35.40672654720059,46.72571996252102,-27.400103061476297,-35.66510128394738,1.857938895276579,-3.7394700750015484,26.81160872694067
-12.798449000578561,17.80787979929662,38.77483698462483,-45.022458208227356,9.31866953179552,-21.69966203972087,30.40156621386435,21.96775602786858,14.695808491922087,-1.3541815001673576,-17.211143560096556,-21.16151218683406,1.304290058714868,-0.277882769879635,-2.752172119166781
11.287914444186958,-25.54916827254076,-14.791401386554956,-10.89749674836778,33.44547492853398,31.97625896383507,-44.08895044313985,43.54921611088728,27.165483078821033,-24.644512874500922,47.32375487451574,14.295899548271851,5.440223354011485,21.95094701365661,9.145655628509196
13.508359490948953,-23.59544261404827,-15.370459536673135,-9.58384383962166,35.21987037882987,31.44246881615732,-45.051678678287736,41.65670181948154,28.815158273665702,-22.998977756987838,46.5324426780298,17.000329373146315,10.547214828552486,21.03236642680708,9.282959749634678
10.964814599324855,-25.956939685652628,-13.87436056853711,-10.696499327337595,33.90864139442279,31.731166493902734,-45.408444010370594,43.89507352625797,28.2995558087652,-23.877957235831502,47.250464169652226,15.732726174326789,7.860824869697688,22.993406182334407,11.112028759636084
-17.52307228196248,0.0036528627453258355,24.77626117179178,39.258523983423515,35.33685074252684,-3.997273773752689,-14.549784537657153,-16.13472104273421,-39.585390791282265,-48.85644737455228,-19.109615224555935,19.477743355665115,0.11845731517224256,-31.075635421410606,-11.028115352634652
35.78436240224755,-25.69306591219126,19.230846289616437,4.49128137210632,-15.388733715232659,42.65342163278263,-46.23226179170052,1.593380373805292,36.24303021755589,47.5595169460944,-28.639680443668677,-32.76904348003967,2.694978459102333,-1.6791331307495374,28.305065625105556
11.70455385191887,-23.429619007017823,-14.926701908755811,-11.038108982316622,34.53274523389218,31.565217948744255,-43.006341419812564,42.20033028044129,29.768911049524025,-24.893373775641958,47.79068383040693,15.959884151347861,5.823439982272514,23.64259243483483,10.233626598951004
-3.039985341812704,3.7690377276873273,-13.125756198022911,19.57141310375241,-36.97354214864637,38.95614786679976,22.135262646609966,-3.8099593884242333,14.757551460146313,21.109946473824706,-26.796253625805328,4.399709123349407,-43.7754092068836,-5.7333941472233425,-24.520358371929923
12.36257783634259,-24.85636964082728,-14.6250725276942,-10.746965770735827,37.26726481962646,31.533627280619545,-44.11706948553278,42.51511887983568,27.235256011499754,-24.068371707513464,47.754582950291926,16.488082288698553,8.695847888128172,21.58219180297306,10.35059142989498
19.941288411244958,-19.251029775583927,-6.888530042837192,-43.58585645081259,-39.75080724544997,-43.062145146529645,33.681976819765836,4.164448054357042,-42.83307798101101,49.74193121840045,-21.398141620101935,-2.4189757905955145,27.45448740921017,19.828200010567897,-11.523748573389554
37.73881562908338,-24.463824299976995,18.60022607549126,3.9637644501211424,-16.508028384511626,41.88107488171543,-46.53985204202328,0.9456914445214819,37.5176187703702,45.88126963150384,-27.655287888977515,-31.86888065051102,2.3194789965821703,-3.8754223179512026,27.598100064535963
-16.06407426767194,-1.9534421701041214,25.956110529408956,40.55626206230802,36.72758662817297,-5.637221314125903,-16.280870761135986,-15.148821491725592,-38.60288544676429,-50.4681276535434,-19.609441555302748,20.575930426310805,1.0041210354390817,-29.350415544170446,-9.596419697168946
35.12067345059187,-25.092697318817315,19.578163679859678,4.5622867128932505,-16.56543953941413,42.37289989929008,-47.566478611594476,4.469255398556182,35.1025935393705,45.83912314575751,-28.568315439630755,-34.161879436397705,3.665691408169801,-2.426547036807343,26.35247715504792
-10.153290837852886,18.603828915146295,39.32240672097651,-47.19896151917253,7.470272104885492,-21.522231562599423,30.701598037519503,20.98899444240793,12.322936917560682,-0.2266572888512337,-18.112945292670243,-21.334403662899486,-0.7877623519461588,-2.792174418905601,-0.8919502284651454
-12.232801986771705,18.835577697617254,36.04036344432803,-47.103016651197365,6.358177576409511,-19.55727746258368,30.941573114925138,21.30561802573693,12.156891324357911,-1.3532987744292795,-18.628217481096932,-21.261885580475848,-1.217687372688953,-1.7667582399897712,0.006820485078267824
0.3035620760918294,1.5516710738837227,-11.365501088675634,20.3209682059464,-35.85298837246564,39.51979445121987,19.881025798072436,-2.0712164214398534,15.711573232994127,21.69846782606452,-31.044821128889556,1.9021844431767059,-44.50141688764849,-4.3313399597992985,-24.335953566151584
-0.6875443220517639,4.6150434666985545,-12.147579366101402,20.808713044318434,-37.116193198670885,38.30744770320253,23.127471959514814,-4.187398547917218,15.917818525200888,21.131210398288562,-27.97876712647807,3.846873998408819,-42.39653051200567,-4.730768394093783,-26.24538355530374
14.4892131138773,-25.01518032739359,-14.731186236387755,-11.148730922533025,34.56519006073968,32.17589717021562,-44.09255252772734,43.948597581635795,28.29388962725966,-23.791091675362747,47.77874833690621,15.754968563574517,8.403634273559959,22.835428392698425,8.64660229836521
20.93653545802108,-18.968661841592215,-6.257086346706743,-46.379146170576796,-40.07434295252184,-41.08617994160195,33.32878057068001,5.881256249115899,-45.496689085825004,48.0076624187299,-21.41769158649644,-3.411374346997467,28.006133817861617,20.538227328697566,-12.660146559911528
14.137704051409226,-23.71823544054775,-13.091172785274534,-9.940265534215865,32.836364726309874,32.28691062462513,-46.93895306626239,43.60961509270281,28.72034936136728,-23.8133026623624,46.61669514862631,17.448935781555807,7.867945909416003,22.67866076512242,9.792876264617773
-9.88433663471907,21.059766313951442,39.019807068617524,-47.38420589574572,8.513311448700899,-22.27225389549108,30.387857939175046,22.388752737699402,10.978675622773107,-3.9535063186156627,-18.82318431318502,-21.780089470758963,-1.2967370034862176,-0.472676100650818,0.356458651438863
12.99316746722023,-25.423013580607787,-16.156503067136835,-10.081996556624262,36.80952781775097,32.30117859065725,-45.47018650803304,42.56509246341137,27.675849712959497,-23.937810289577264,46.25951188635067,15.78837381047476,7.459767937734088,23.238863996264755,10.60485105350526
12.910951701641553,-25.26139549104408,-13.132294552351013,-9.367672347886568,34.01565999759076,30.9851114862497,-44.82115930522827,42.3247003412858,28.31183827315525,-23.109646153739984,45.97685902132524,17.23180480294797,8.027417186138543,20.994686456000426,10.567315922386896
37.584597554332355,-24.731482975166728,20.941023024099252,3.8859187528913353,-18.554058202603112,41.73729588352818,-46.43384175080677,2.4922052524802516,35.50965168261939,46.210338051753155,-27.532328652541672,-32.43548626591026,3.958303388559729,-1.9347801256570756,27.923863984232565
18.954591011449196,-19.34427154285107,-6.247160327856412,-44.30031755437042,-40.26975356595711,-41.81420509127496,33.64388329278766,5.436565554000268,-45.216978227559174,48.095598333788914,-21.988866770984295,-3.6418546324552175,28.472884514256744,18.694133966153704,-12.893941589425534
20.49196001532553,-18.511652639098607,-4.167701055263567,-44.82051078263117,-40.64404140309927,-43.443140057335434,33.84166940382721,4.937816388371251,-43.54007645986166,49.31805411123513,-22.270230094947763,-3.1381440904161857,27.289600323889086,19.025227910608987,-13.18409180946163
37.39414505169335,-24.039648125374796,20.066176621374723,4.245576524944632,-17.49617438345633,40.94290211607128,-47.560884221634474,1.0765083458811173,35.41127805542835,46.213897707177225,-30.180263231526364,-35.123631364442815,2.183845843949094,-2.479296020262892,26.87659410001611
13.51887484239559,-22.74225022864531,-15.435929846165351,-9.567003792977891,34.56044223549019,32.330177991943685,-45.14772282002819,42.29084245095289,28.51603298553166,-24.269910073581592,46.32993839321149,16.290990047321657,8.388948944812629,22.23944945396875,9.593320973514981
36.52202844597738,-26.719314734238804,20.575500124888066,3.836080502159051,-15.232745089242254,42.788671604808876,-46.07338240695007,1.9284434688528054,36.92198337688051,48.58719481048598,-27.92339929649612,-32.71235523873579,2.171696249821169,-5.379971208425204,25.63838567113469
-0.7709388382921917,1.5410213975266729,-13.560794624867198,22.420022273486627,-34.5782607207062,37.4624959627266,22.43744716651829,-3.210169718447946,15.257863743649608,20.753387902869687,-27.91646108923326,2.6855746374543297,-41.625311246965566,-4.707564554264696,-24.609536952809513
12.515867989605079,-26.141480439962553,-14.088699560456668,-10.436888308907843,33.519876326736366,31.167254660453345,-44.24027723766603,42.60855719985966,28.246544566438338,-21.549637430981353,46.00097075465872,16.798235641342885,7.542660434682908,20.006351749211557,11.299404982119613
12.045091533663792,-26.67631790786538,-13.690832405840373,-8.457732563571492,34.72465647679829,30.883349663201837,-45.429368813024055,41.946040863508905,29.973226601388077,-25.541035403641544,47.595223277312726,16.390874326103173,8.84906774517029,22.87236503177773,9.70677150281886
-9.69781489392002,17.598968961679947,36.25596015753956,-45.73026072859596,7.88009215145785,-22.55642210269601,30.953003215722113,20.37997387293734,11.272916775041317,-1.4586797682412467,-16.764562786416892,-20.15468141538787,-1.20020090354727,-2.2208033208552713,-1.6010988155802113
-1.285800605100378,2.702445840396202,-12.658673193033165,19.809539099628623,-34.54908101659367,38.229209640531856,22.790470686115214,-1.9993475397107257,15.856171602555607,21.680195741486184,-27.96733103027314,4.220167801204838,-43.41335591361313,-4.914383926690383,-24.837173865053504
36.39213854795043,-26.250242187538145,19.31386395231972,4.606873043715785,-17.83634909938766,43.52998553829314,-47.39711157771665,2.526994934291247,35.92821597578082,46.105900408519425,-28.612332262484273,-31.451206677392914,2.774342977123327,-2.187549082857315,26.697570297915004
-2.2403152060591722,2.055635747101023,-11.482083387396415,20.243699086637296,-35.23011811680234,36.71216578494736,22.092106379080807,-3.9613457660250946,14.822904770318171,21.26309727097742,-27.687857943564726,2.9499667322036713,-42.8768354154882,-4.939258269512443,-24.21525497063852
20.572487561378097,-19.568712003167146,-6.761759662305932,-44.04510971182058,-42.88491234303599,-43.22686357581344,32.87968657987322,5.519489772975724,-44.325596535284824,48.08218322112076,-22.407218096767593,-5.658985538720901,26.875564390380134,18.56670878861374,-14.573958904243689
-12.38218173627947,20.053068074566394,36.875087497737255,-46.27761345781596,8.730115476163459,-21.106352035209486,32.221020959694066,21.74844432184218,11.58528710207776,-2.113244783658478,-17.601157512146873,-22.91241782703159,-2.192229597221507,-0.08780908185422887,-3.0351376962658194
-16.104458734666963,-1.4614524407055807,27.00348215124547,40.80112642119463,36.96411552935555,-5.260018381722171,-15.999371291244469,-16.11955826747563,-39.71870467307292,-49.36009719512809,-20.08538140656228,18.55966143768494,0.5596714507741931,-31.45234546635724,-10.798930330563486
38.18991205628318,-26.27531691405375,21.330340648974847,5.504383186511816,-18.10727053643548,42.258434346706274,-47.101675565020585,2.729396969756907,35.16395659833765,44.67948930641497,-27.403085478990434,-32.95439930194174,2.7832793068453223,-1.8979447858982257,27.454381505316455
19.213901213050157,-20.13937781012336,-6.219903210313823,-44.671105599054755,-39.254087456862294,-42.56410714076798,33.115038315268364,5.406391331478447,-43.782268272153324,49.17234190226142,-22.65511377647034,-4.013306067090793,26.01699390220104,19.572575434654805,-10.906846886946036
36.3584488908221,-25.029448425592808,20.157071837001762,5.174389275795689,-17.127182433424046,42.75823760434526,-46.89139895502183,2.8714221782864846,35.67783402418802,46.03340794305446,-26.377425215832364,-34.39486629082473,3.8994324257107786,-1.8000992567301384,27.78543556333535
37.005728654351365,-24.91121671559223,20.615672641532765,6.06837092321277,-17.7013633938565,41.04280870723566,-46.47444660529325,2.8373734190059503,35.37179271779453,44.68150616877693,-27.450954249649453,-34.15295850885649,2.7701500679186077,-2.5081676552866226,26.751116216549814
19.865115454989418,-18.58234634483702,-7.923118672740969,-45.57776808554963,-37.81768217026461,-41.898090564187626,33.42726904780354,3.451551389299529,-44.33294348663623,49.691907628027586,-21.404607445074088,-3.6474733089381943,28.92202829936618,19.63498245130181,-12.552320547526136
-9.468522313986151,19.162338478573407,37.384731078393294,-46.30410049549508,7.806229854596531,-20.655493782002697,31.26615562055072,21.71560591842436,12.434813713225733,-0.5740928664780338,-18.12018082394509,-21.47273489838825,-0.9277446662501594,-2.4401866633848206,-1.585471906118317
-8.988782188082723,20.18131091486733,37.49649123590349,-47.17687739334007,9.574922258371902,-23.152341977848206,30.650050674736548,21.07687042050903,12.104628796098364,-1.4869660509139058,-17.98955646614759,-21.667172153536335,-1.2581776212163422,-1.7340333998935338,-0.6950279788953504
-10.947797302165391,17.439839965031286,38.46104124493757,-48.12707778999873,8.226631197743323,-23.077523045629455,30.945271623946876,19.98851409158751,12.86939469962914,-0.6443675505717172,-18.301792971432164,-19.259917724314658,1.6252289512060258,-0.39892225239338985,0.09706446643035171
-11.83918603217091,18.96820956838309,36.87534119227414,-47.93567841570259,9.90095716848749,-23.550897600242997,32.40398284046768,21.654358369849994,11.278333753332735,-0.43165400316232105,-17.605350251080274,-20.81806789971895,-2.8263572110085535,0.0674252059527789,-1.3368456866750142
22.201548237463044,-21.204084406437104,-7.899470738076286,-45.531934601950255,-38.909267204927396,-43.078594057965084,31.942558232223128,3.289478679919088,-43.00280032337666,47.87755860079842,-21.99975218501184,-5.536827367341656,28.676356565094935,20.57191986184125,-14.209702284425656
36.30460692596623,-27.35889367955925,21.196686054336453,3.4294167381619323,-17.18032122945536,41.95015751313567,-44.996523035795505,-0.025628659481602423,35.4622506914594,45.923095398170865,-28.18873045149089,-33.73277584282829,3.604412767493479,-5.442316086458532,27.07726487170498
-16.11740296266677,-0.5528893340263028,28.365589826636516,41.40264154344115,37.57505306829241,-4.990375499315706,-16.33444739574768,-16.026330182229618,-41.047760410913355,-48.177459720541776,-18.424285209257704,18.28752187994138,0.37287565545838786,-28.88768623608331,-11.193142715682393
19.196434968265304,-19.167411853988447,-7.7341341049112975,-45.524316449358665,-41.97372588554498,-42.45038995494712,34.825352723234175,5.359463563362954,-43.79184276681647,47.86126667086318,-21.531256490327724,-2.512274262723688,27.75854124328883,19.568399521119034,-12.286325812445517
13.457492736295729,-25.71580119484229,-12.23612036592918,-9.882094623395025,34.834315197226616,32.3783890774302,-43.90581235923904,41.31643108660521,29.15794122142749,-24.800558321406445,47.83500859098731,15.837504655712934,8.16110808384721,22.26581731340141,10.615651435837915
-1.885883653070119,2.474149434304123,-12.918840773648457,20.040554906952753,-34.7472733612416,38.992019033613715,21.00822144217034,-4.320845131128423,15.783270157925894,22.08017414374012,-29.477349465082632,4.541714110955693,-42.626650257674186,-6.360758110422615,-22.934477554023502
-11.485973765869458,18.629211767294777,37.68660909435196,-49.173388539664536,8.09547203814332,-21.987100440907412,31.084377592506733,20.58756599593994,13.878044542321499,-1.6350492098348415,-17.147085277096043,-20.46263486183722,-1.504480014583785,-2.592526576918659,-3.005174672224319
-2.065649002254144,2.447888216748273,-13.431837927951715,19.784004692339952,-35.947831573497,36.66913650329543,21.56010943005238,-2.457905186992038,16.07719260968245,20.380062010150258,-28.79730022034825,3.198567553007216,-42.634527310539646,-4.022206899927822,-25.638584851137544
-10.576678376777004,17.344026278776195,37.07535102362507,-47.03067849192469,8.99493408999085,-22.923448562429126,30.574002460770984,22.182428298539474,11.87512414489903,-0.40175659684089005,-15.752232703704374,-22.785547026319524,-0.30137690908937376,-1.3412626480877154,-0.9117509250960463
-16.969588045757735,-0.2629623155366235,27.70503448224006,41.32423022822635,35.45611424602881,-3.5080223756717066,-17.017551729380635,-16.517370044474607,-39.316351211849415,-50.30922473578415,-20.767526786048077,19.90941182996222,2.2545876660971302,-29.475323086036344,-10.653845236963312
-17.301887758018204,-0.5002716369145777,25.994650490598467,39.48255004488659,37.306957582347096,-3.7762729959775374,-15.076530541022397,-14.567547140238428,-38.40985522489695,-49.091538787266856,-18.69342146849962,19.446631662762613,0.8919128511485599,-31.092713305393822,-9.814789435846578
16.66075350345326,-21.218391477374425,-6.675030253847378,-43.168641480229844,-41.74100049746565,-45.09182019432896,33.16438675688084,3.984844926176872,-41.935008002314255,48.561842101621636,-21.956431755500507,-3.0247873549671414,27.603181964783722,19.53144124477294,-13.458254577706338
-10.239541719549065,18.31524547403471,37.663216428295506,-46.88562996719213,8.559985138419002,-21.346492507095626,28.98133842953921,19.444782207644497,13.594423729854347,-1.8753854990786065,-17.167644570128587,-22.828677076335296,-1.2718034047802667,-1.2124243886362753,0.1673395195842955
12.033654402499561,-26.778488566196305,-12.908412248843526,-10.708705548907906,35.22756247753736,32.59221111961769,-45.591925726223614,42.29427593373493,30.818341830126457,-23.20069936653981,45.307076265292054,14.25789062853149,8.687194980661388,20.481165630171674,11.201199760924228
14.163022678234698,-24.641787212765625,-13.208680293073067,-10.409151895142776,34.8377382847679,30.221057992724567,-44.69900182768088,43.197888123127896,29.906543070175427,-24.96053904509339,48.42489458397653,15.60954892339036,9.065731885855758,24.498480193767456,11.225959855754919
13.677208961060046,-25.095779679464204,-14.743311147049113,-10.638831698343747,35.57667651424384,31.344392338217023,-44.64141884248482,44.78830945454385,27.658836941592185,-25.48374289857445,45.54474408473831,19.045938410265972,8.103733098305133,21.788632455587297,10.734877634026015
-1.1438376550726392,3.677825042621484,-12.262623154294218,20.82695019394112,-35.733474384105705,37.079949234467485,21.92066380348727,-2.1964291993892977,15.410542604569352,21.22498972376506,-27.758211051611365,2.1242974175095095,-43.85648316857831,-5.480791375508109,-25.01393094842581
11.959708159726803,-24.027485699884455,-11.31720899591415,-8.332535635282118,37.29390006408164,31.057549185170316,-43.015320614546404,42.83983676131973,29.715042105373843,-22.99150535129153,46.62354678911938,15.610571421452278,9.763175261430183,22.169974355784095,8.854390923177068
35.91335985079584,-24.389765559563543,19.3634470117605,5.071228718605024,-17.140317856304748,41.20667130033015,-46.97577112337404,3.3864136942757264,35.7154592547036,45.51936201812853,-27.141168802600713,-32.74230838463145,1.6985358796433545,-2.004363603435978,27.307263992180523
-10.45671433165257,19.735729865242693,37.69901203399312,-46.22745993969196,7.44778941696168,-20.16955416808415,31.25319356838858,20.5881185298912,14.0258634237051,-1.5877440640576033,-17.253749758055225,-20.937671881768587,-1.2448722566778492,-0.7330387955101726,-0.7345993122489511
-12.85657707791639,17.47163235331325,38.56731601081199,-47.96083687157368,6.580547093349898,-19.911992693877735,33.079509754538755,20.780152380626898,12.560097941441416,-3.161226543621468,-18.30354187673771,-21.67245392945021,-1.053771366537639,-1.4645609865015454,-1.3769970725552405
39.412513429889344,-23.562463063849084,19.720987702972618,4.746539662768125,-16.493006525728568,42.15707099320834,-48.86199112589491,3.7121443922060577,35.7791269236944,46.70416961822467,-29.44362537000402,-35.29688662871686,2.5049044519409285,-2.761686730990134,26.190804917173065
-15.33609111942754,-0.6005699125031312,26.38541176729305,40.30706151192158,35.714574307552446,-4.425561675078003,-17.140402772916644,-16.25379780809765,-38.84278493060329,-49.57392393912663,-17.81778182638834,20.42269656453327,-0.20088331806259818,-29.335892153899664,-9.724046888023727
-0.9076817740701907,3.6172588648135044,-12.109076535024938,21.07776935185818,-34.09582044033113,37.8565744332704,23.528722324788372,-2.124345994820393,15.100914418958578,19.950646791525465,-29.09854362095247,4.298236450066503,-42.937079813963585,-4.83553941610449,-25.155654724539435
-13.098478214359353,-0.6281735312057047,26.271039101067917,40.10714881925997,36.37269528707825,-4.838893439957464,-13.99397619596026,-15.825519601594577,-38.6794805163598,-48.02645465260847,-18.715694131406753,19.037768820464276,1.6683616181377086,-31.539531675411926,-10.266575809909403
12.024822078156827,-24.283900551747372,-15.319184838876287,-11.744123250497573,35.45838566648113,33.39708456353274,-45.08960246178617,42.59716633113239,29.219041987592032,-24.772584453324527,47.116451264462576,16.64472447904729,5.383291742576372,22.278963124049177,11.275733246807912
38.52676250725811,-23.908411845599595,19.79925803068318,5.517612175709811,-16.631254420152242,42.555680805934756,-47.7350716542075,1.9345082699100553,36.81334831820987,47.364295022487866,-27.97790718265586,-33.320445155021154,2.382968734930118,-2.9550056380494807,27.839319396306966
18.98977636493082,-19.421724226655346,-7.498647026210943,-44.85212044332645,-36.86889225058909,-42.86080505139678,34.94883596701922,4.535295068870744,-43.413976377517116,48.74101652574511,-20.80850234774602,-1.8771055057624868,27.70276761669451,19.440139687162276,-13.057115235671606
39.49559554461817,-25.27300590774441,18.82220951272779,4.093944532289452,-18.66726877769731,42.24110452494901,-47.409885095209525,0.5912315927924401,35.745671655222544,45.93489460912063,-28.23220185118947,-33.88638609657034,2.980983681109016,-1.8203199828307228,27.14166403940416
20.90284819170982,-18.294760863891245,-5.132445707076325,-44.4542656863273,-39.38714203992888,-42.82050677178295,33.12677718617818,4.199743101780841,-44.58151282836428,48.9445269563779,-20.996595468156215,-4.5522727198196735,28.076113914165738,20.68063195496498,-13.91678309058966
36.7668754849867,-25.103335766933654,18.908077980780366,4.905223682881669,-18.301726991748552,41.765878001143875,-48.250645457065744,2.4380261188013708,34.61068783504112,45.885351093681656,-25.921709365501403,-31.707306326089437,1.880659401891549,-1.6795963966379774,26.285945946979183
-11.18145451668215,19.474075218913697,37.46465622337089,-48.22470335502406,7.51386261551207,-22.446886145432103,32.416854228172475,20.190808265045252,13.68666251929535,-2.0172261132736695,-18.02593946095451,-20.322844146195415,-0.5887933634404126,1.601952328334145,1.6211062494531747
36.03291429596397,-25.191107757589613,19.763374935881888,4.822793002700008,-15.481885702803444,41.47087794434854,-45.412845326074496,3.0062597470909047,34.82417333718077,45.53587772188574,-28.464350291499617,-31.63307476525877,2.3065130565798255,-4.436085858612082,27.235368473292684
19.109016608836715,-19.616402238391366,-8.405497865467176,-45.67646359381959,-40.74691588397815,-43.91846687157435,32.98163308269821,4.336238012954442,-43.98099592825691,49.193099224969885,-21.23846042651689,-2.788628844919507,28.003920964342598,18.601106819793294,-11.222363316403932
15.691277916257006,-18.620063561044375,-6.7413290867614535,-45.46319852236317,-39.174951254553875,-43.784632044347724,33.384451392927744,4.271480794089746,-44.2758748479131,49.7293606546947,-22.254647618741963,-5.187381639960883,27.336777565831763,19.289408854451914,-13.627716395543505
-16.740113917651563,-1.0905500989497143,25.313814517462006,40.858863277607945,37.31972767819445,-4.827127834062488,-15.280457773849855,-17.5049803995289,-39.04722857426678,-48.9865004618617,-19.01186783354094,18.90911354213914,0.02647859702927191,-31.70443716201703,-8.78336550604
-1.7794136665115379,2.2363090821522644,-11.742011208797406,19.28353887710024,-34.272694371697824,39.78171077811002,22.3588304646927,-4.410307847451512,14.08362679316872,20.52949050164856,-28.011514080654855,2.7863631994250775,-42.0434733062557,-4.648614618027669,-25.251216706886577
-0.7933238496483558,1.940651900629849,-13.606120254597352,18.984013557865577,-34.78713107131911,36.32509511441108,22.224793779324266,-4.434858778905568,15.155565086580625,20.91706642057379,-29.135144537454686,3.1518807706544916,-42.532689545661164,-4.628449418100433,-25.214171202651265
-11.69911615950918,17.365684371425807,38.85478299018845,-48.065042918187814,9.842484847454308,-22.339440230049263,32.65307003444031,22.110702974607563,13.911083065709677,-1.3651220499157557,-19.053584074947523,-20.721252738941594,-1.7836142890184397,-4.175704696384308,-0.8252939345073718
-17.1615142658516,-0.6760354966007895,26.48719850354045,41.52339136591174,36.96197909112052,-4.221868514576051,-16.635289827504227,-15.456368063406849,-37.031329605985185,-47.813633766988296,-19.70057516979426,20.52610247572307,0.9525845380611864,-32.096277671289,-10.276226322250555
19.4442992674908,-17.879394582841076,-7.0774488681058125,-43.940816184569876,-41.19755931533163,-43.90473183734382,33.694611357073484,4.765782843100658,-44.47738683164115,48.012291908508324,-21.96483923402851,-5.152371788602767,28.434071510151664,20.79358276733821,-14.291948398985161
37.19805664431284,-25.128907277203023,20.89065179044231,6.65749675056472,-15.891785607604547,43.20483634681929,-46.364658031686304,2.469613660102345,35.91867180832759,45.19015643043552,-29.08214078166607,-33.63966735451257,2.629343164790056,-2.370552964730483,27.10798717210655
-14.95257544254142,-2.1473589436230913,27.216015558578096,41.08632373798484,37.04988043741577,-6.096305928220176,-16.860821877179436,-15.368703112102159,-36.35817552190663,-49.72901336988088,-17.48877417781872,19.061337634687813,-0.07327612701990072,-32.353494698117856,-10.707560756096463
-15.631325596880462,-2.036934731247131,27.023651595755066,41.079975185934174,36.48077125337388,-4.643006373270093,-14.697664250433448,-14.971887558997604,-38.54890841425298,-47.37479671556562,-18.81149663410325,18.56804668828873,0.6730779627983385,-31.235694635422657,-10.517890134421712
-16.469363501594994,-0.3484017124943697,27.711129968942423,41.11746007408183,37.18203004421674,-2.9305950700486987,-13.992073014163264,-16.74924716032896,-39.17520359990945,-50.55955631791168,-19.587421255573936,18.884834897443106,1.9918309442534525,-31.140274865699542,-10.201968137601057
-16.148712675542473,-1.1945250362142894,27.091700724909682,41.61472022995096,36.55585614601445,-5.07142499269798,-15.18754691598535,-18.578362510451054,-37.645832969382695,-48.265680224120764,-18.81403632069256,19.22573031702939,0.8500275149760704,-31.51593031962648,-8.545135199263871
-10.415449108419809,19.463972345908573,38.86480430509353,-45.15702186770884,8.224668900050057,-21.410223074988146,30.763924672204904,19.17535059129821,12.612291253154488,-2.032598197341656,-17.93236544632489,-21.27186940860766,0.21774700674613268,-1.0531509570293835,-2.1487331520897843
-0.6656639896897285,3.94445788585791,-10.741110171829671,18.603584166369135,-35.77622932877681,37.194359184820065,21.793937554500005,-2.5857929628883087,13.28586343243152,21.078985488105612,-27.713225072983892,3.129625442905847,-43.236386646653344,-4.07740266012977,-24.432710719958706
19.145050696503635,-19.953774134495568,-7.141098049526638,-43.92022777844129,-39.74183181966569,-43.09258468719241,33.27771498567015,4.6034803318733415,-43.90848139131626,50.32113646807156,-22.245350032205856,-4.02940126569047,29.19421977834583,19.125500115987062,-14.665140332567388
36.48592339802374,-26.247470601112934,20.446498874140566,6.343603605753248,-15.71519326491344,40.49962248523752,-45.59310745120721,2.2562840532991357,34.96461949597059,45.139865768282164,-25.773688335142346,-32.05389277411369,3.191936649736598,-1.2387770141978416,27.053598126893533
11.961197528711766,-27.06525912821117,-13.764683745365117,-10.086606807640889,35.46646827411688,31.229546976999774,-44.69083394365183,44.80457057302562,29.872355866517037,-25.89167342407929,46.23319058094596,16.183232792107177,7.873110181966245,22.098038880106362,9.223053164260241
36.595534890356646,-24.34244155970421,19.34025185823483,4.233638045563708,-18.16723927485826,41.03858673392154,-47.79161366792933,1.1993527155490666,35.550432909059175,45.764947620005785,-27.861740220696646,-33.80423953973961,3.8816977383564613,-3.7470676026590657,25.449495624107985
-10.383263146185467,21.27315720769132,37.777657871399256,-46.94175239331162,10.998395849835411,-23.44248139206746,30.001908779113748,21.123233263347135,12.183947264716991,-1.8871422264536044,-17.967709675658888,-21.5875084253891,-0.6852319991618248,-0.18433349629570606,-0.8468379239622004
14.75071097037102,-24.328615361001276,-13.800175697337561,-9.441233611174896,34.56492632011034,30.66737406995329,-44.29416774772443,42.125659936461176,29.67624755913586,-23.321011445396024,47.23124318743533,16.253977054919368,9.10607190712375,23.27235824141593,11.087656852471936
20.35581462221104,-19.062081446376,-6.701878425034903,-44.65437680762596,-40.8461633753654,-44.465373979851705,29.36418777165142,4.887663111645143,-44.541977964131256,50.56320261288283,-21.738425229971117,-3.6526481287490213,26.173608355474137,20.684175854807155,-14.132499911640084
-0.8188639959583704,2.1493062410321553,-12.696406662568709,20.1344169578926,-34.992190646792416,38.84971377319788,21.787268638436142,-1.5622433611047963,16.047381219245477,20.11456265792639,-28.069112150983557,1.6630166287349053,-44.047325468827474,-5.7088210416656455,-24.62099802418642
-1.0024742100610513,2.088726805921213,-12.327367879729666,20.341784372648064,-34.81000198808685,39.7530918804912,21.990182480522428,-3.2952539994847823,17.295573357813765,21.747983409218946,-27.2495663967538,4.272822736191095,-41.86329190299133,-4.609397774786911,-24.88394537336369
35.46939423954782,-24.596540096691296,19.1442560723,5.641713935109133,-14.52797978781578,42.06186031544002,-46.9109178816245,2.352856712498053,36.63645617771727,45.61599391226623,-29.61868757921662,-33.66390214070563,4.259359266623381,-3.307477087063922,27.528418478217286
-10.974258298239633,19.246193868137066,36.4942112559243,-48.721795823146785,8.109975295812907,-20.75051665192439,31.136550068736653,20.668597437000635,12.201267382592908,-2.9656713106094243,-18.67433433408935,-21.360304109824305,-1.1271192620358812,0.07757980110925922,0.6576450832793113
-1.3129066680048438,3.4020196214604943,-10.9972796627293,19.563887550066482,-33.41404472422214,39.34233651287354,22.81772121639512,-3.085935477171807,15.411635782400342,19.30302793675449,-26.20445424756158,2.9831134150216374,-41.737369486031334,-4.546568175111391,-24.306864185069788
-11.385919571411762,18.72746211080636,36.88127883621723,-47.40297746754313,8.25634671194392,-22.303177336779022,30.302929503265673,20.553534491592256,11.504917037090927,-1.3811257600291351,-18.925238787108423,-21.86060345320824,-3.357398708024617,-0.7245809809616954,-0.6273014831554065
0.1344236416583302,3.7113853691088066,-11.407559240971258,18.87354697693069,-36.91294341548525,37.21398707441872,20.567650879404123,-1.7766168276882954,15.393898953203802,19.13270851037135,-28.604411917543704,3.2716274390861617,-44.138423001518795,-6.007839962252833,-24.94260240788333
13.608859419842968,-23.513047661850162,-15.158297922686382,-10.579252974427309,34.8467496184191,31.830013860975598,-46.35252373867378,44.47846494872225,28.50369892881478,-25.242798723860155,47.351271974137575,18.07757870489853,7.514744780689197,22.218589600697715,9.948495410950079
36.686726205000674,-24.690598659957686,20.248091191114415,5.543224832691182,-17.53571123634756,40.9616718227492,-47.6490846457843,1.221377411521484,35.88323299296258,46.44369348600104,-28.725882575958416,-33.113681136715115,2.181825388256672,-2.425380172302023,26.28112961396314
13.365182284483854,-27.482712328256977,-14.548562248139131,-10.12278650122202,35.5160617452422,33.631887781933855,-43.3729527916579,44.686089580244015,30.026491190699122,-25.725892519743905,48.67076534517683,14.59057022041204,9.450854490822598,22.244792183665847,9.93711215819228
-11.970550422982749,19.062130865886314,37.74123804415967,-47.35266070580935,9.671531119043392,-22.731210785430555,31.093903260035813,18.366448197144123,10.89992915330397,-0.4849644131645219,-17.576637573993303,-21.652782409894826,0.3234552931860759,-0.10634792659198944,-0.7594714667455575
14.433517326914115,-25.42600606438004,-15.229107847011178,-9.665943720141211,34.37877803667768,31.32970192538634,-46.1618572877256,43.255017307817845,31.355464271663994,-25.3531598141251,45.94750889872002,17.16587018622906,8.944521686011138,22.332053127176117,10.607245570734607
36.88665614466195,-23.51023209996922,21.089253177547526,4.5308655399180005,-17.77977725927747,40.87926568596292,-46.57580141630503,3.802124415726232,35.334816753677515,45.285178888263836,-30.3482217558691,-33.094483158676006,2.856391761813233,-3.124605272015268,26.431525504815127
39.319197525444054,-26.55218852849526,19.282370359850496,4.423787604040138,-16.398870125451648,41.13405382420725,-46.29819778401465,1.7553399532908145,36.43743102558341,46.4617488319437,-30.397913800581655,-32.15759172719421,5.279781606148001,-3.51998068777082,26.445364926928338
17.688999965877755,-19.055116893890652,-5.964927307956913,-43.43679095716229,-39.89237072440169,-43.42671166514282,32.94732952977328,6.269011577059656,-45.740059608176495,48.831261561027624,-22.457798277299283,-4.210258888737822,26.859436256287267,19.162922900963068,-11.892772120735135
20.066526851206895,-18.466494255790717,-8.165122798394766,-46.271310991428564,-40.61681188537479,-42.000553284874094,34.41629212625027,5.1062471306643475,-43.32201422781148,48.06684604200549,-21.05790879883603,-7.043537363839983,25.569750998187253,20.611116734839978,-12.30614827444995
17.20816663023797,-18.994825472376526,-6.719130723518925,-43.9059952106958,-39.55880796935641,-45.1838712606742,33.67009616562027,3.903686916738762,-44.78031707676757,47.434770908043774,-23.691947043969726,-3.3409442428885945,28.37535285283978,21.667252725056223,-11.137150599266784
19.891360168386477,-18.009537206747275,-6.026376311228518,-45.36066148665089,-40.20884755003536,-43.73399785863994,32.20849048536839,5.00441975945696,-43.25057848767517,50.8777568815972,-22.127848197503226,-2.559577921656409,27.00822848778135,17.960142180198716,-14.23740940278662
12.831382375402747,-26.339336431150574,-14.599016507118606,-8.945730852222754,34.61064846302007,31.81666621327441,-42.325452193280945,43.255636426377535,29.65212526337378,-23.664810714700323,47.039521328084525,15.388388571776185,7.902445304538949,20.068548125175255,11.995465653035145
12.167707034827572,-24.256733554308134,-15.1061093613403,-8.797325623101763,35.981799247423055,33.35930578377396,-44.34157139467842,43.697737253126384,28.67080779574322,-24.605043237554494,46.597252811992156,17.862440375037846,8.075762650517468,22.132510550558116,7.73380044433693
14.3286166913091,-23.90257283872382,-12.334956134846621,-11.49979699100828,35.29530984204008,31.517722752110434,-45.51217149867247,41.84487617135373,29.36766997461429,-24.147048205585754,45.588809405290355,16.478408588544674,6.369269267481557,21.243686882088234,9.647606577918314
-0.06137065402560693,2.3078305824991423,-12.156038914869255,20.873397634269697,-34.515455380543926,37.85073808043804,23.54169476529117,-3.9737400304507453,15.418470801972875,20.102351278456904,-27.829488498932673,2.5758531982284483,-41.69858968221712,-5.736528682664577,-27.303426569168305
-15.677655677244113,-3.7055130639741534,25.796905721437582,40.90218532619401,35.71687496238805,-4.714326825483846,-15.004613935761332,-14.981436221855487,-38.42713172921122,-50.48096954973893,-18.4316856746559,18.18610008286154,1.0049645855099012,-30.000565366289905,-11.148452571926674
-16.635338644725863,0.07547651457433169,26.975127762727002,40.57181764365746,37.33501875765345,-4.9921408712360815,-15.612685541720165,-15.910738823895443,-38.38559630836338,-50.47937858163473,-18.520765314780213,17.631343107258946,0.9262889415672656,-31.169464910596083,-12.123589320967142
-15.226915972963214,-1.3463479603742765,26.034408452239457,41.42842722002678,37.928538252542495,-5.122755507308663,-16.466718824136425,-15.665021835255102,-36.802286796869225,-49.20714962433672,-18.53291533993256,19.77026747455949,2.5686780232337822,-29.137466245656977,-11.73371990515014
13.976324006582185,-24.362897699715784,-13.141716261110405,-9.744216176653833,36.810195100397195,31.906113222836957,-44.51236631235432,41.60930158060771,29.929293816021385,-23.997957385147664,47.37359778838663,14.690654328261854,7.9372848128528855,19.852915041453464,10.542605794957748
-15.869728178701429,-1.304834950622623,26.94434789745607,40.194759473246265,38.576745006404714,-2.7620216589217104,-15.113869988632418,-15.937481254353282,-39.84067417940724,-49.59044264717533,-17.734262493070837,18.557370492573142,1.4576675628550582,-31.48688331096301,-11.69539663135137
-11.035766073155633,18.522696845151522,38.80356060434308,-47.9340617893735,8.538760597668388,-21.076756762067323,32.1079093352063,21.638312107199088,12.462311249623749,-3.174411980702023,-18.69823703323456,-20.06221933749682,0.7112140528500284,-0.01934156075537119,0.40911711552000085
13.41737972774264,-24.185968748780923,-13.36689485430168,-9.251152489589266,35.1864154752511,33.030359772300066,-45.136166971198676,43.44733620031119,28.741471760169375,-23.20156398218926,46.86927108874732,16.348501283263865,9.71898892375815,22.4847250301921,10.582800525293377
37.388572153878215,-23.567784705580202,20.27955520667194,3.8015456077949272,-16.437565650991747,42.38273128175664,-47.57821719988726,3.4749259177377207,34.61155518873134,46.52078432664538,-27.89846285708692,-33.885150168547106,4.565366060397604,-1.8976550521796076,27.700813255330655
-0.6507692381663397,3.412211812149167,-12.313192415790468,20.244783819685463,-34.772932886293326,37.33853018916457,21.925583804878432,-2.1328508339051764,13.615591069551884,21.51738400430456,-27.90139847895029,2.985930246615358,-45.03098301042779,-5.8076221905792975,-26.39621984583049
21.326638713019218,-18.444248698238777,-8.160814750860709,-44.71442388406137,-38.57104196871885,-42.66372492997446,32.95724439393206,4.83964162341512,-42.34494458693039,48.92528192275847,-22.101988830512806,-4.776316416237542,28.6274445625116,19.379067344331467,-14.530914507107237
37.8858601365473,-24.266236475356628,20.192710382234093,3.8339998473397285,-17.262184394521217,41.92664826648636,-47.362545731622966,2.089148164125258,36.971170313908395,45.93369331224932,-27.998907304486075,-32.02948468177755,3.358536632773931,-2.162501392604158,27.51729148266339
-16.08793349702798,-1.7255024023450782,26.393728402885394,39.93567156782802,36.60056399284026,-4.294965042309108,-14.882972104909946,-17.507019990735746,-39.508222209128284,-50.198640072340794,-17.66908964705687,18.89713782828534,0.6305153155523207,-31.17042894001477,-11.48235709781866
-0.501122097701352,1.614580221776063,-12.317134009425677,19.326522614625063,-34.431265429843215,36.52036624174756,21.133996786726296,-2.099059057616255,15.406140390972103,20.303507870829744,-28.56363251705663,2.823284029148024,-43.021882124526584,-5.78923327257667,-25.50039653849778
14.239227385602085,-24.358886260368614,-13.733208689582534,-11.292366465468072,35.73666350003495,32.40609292670521,-45.140216663824596,43.70648224766186,30.183341856870648,-23.627274243768547,46.994227076667116,15.145868282278036,7.110838262478141,23.42067434063648,8.952053251011666
12.944839121847089,-25.007967152036514,-14.23995425666791,-9.359419609724778,35.06215146316312,32.54976028935421,-44.32213540779921,45.16318210014522,28.347927151676682,-24.928322570162802,46.51253167516339,14.69637575873013,6.981884442441295,21.689793623902098,9.746901533742328
37.64484809212405,-25.029908249332006,20.121287708647074,4.30845452010412,-17.21359202656739,43.79424603080833,-46.04584442477841,1.70609794803625,35.831895466073405,47.047919848659845,-29.043844548160664,-31.25081145041453,2.727437058203617,-2.583363654296008,26.092103933392924
15.339387205193827,-26.422661939219594,-12.927302079570627,-9.464755825516269,35.145533846568476,32.61766862729132,-44.65841602977251,44.874342439740936,27.83327841482107,-24.498025930980653,46.15692214593128,17.559405943224785,7.228071721083319,21.46901279514479,9.543863016459472
13.081251782780948,-25.57674775708501,-14.223825467705346,-11.758268841193871,34.416685916215975,33.47337059345444,-42.39058572298132,41.86415831200071,27.995054076037228,-24.111200221323845,47.96711637087418,16.00184749611224,7.7006833682736024,21.07939675306916,8.70082277486428
18.581929100052903,-16.823410412695676,-8.19823130545585,-44.46257040521852,-41.03207714215521,-43.769961205422604,34.31984174715739,4.208395814363962,-43.440301502943036,48.48036648734463,-20.4462762666702,-3.1904829606541325,25.529014171800654,20.62063435766423,-14.121030686213668
0.4657808731887152,1.7378593427646067,-11.546408954612573,21.06583410859932,-35.0698205745607,38.307527683965965,22.51903897194258,-1.9069748184515016,15.440230731888466,22.311822142990025,-29.668503505041787,2.7055597406775664,-43.20895880629173,-4.608011274265822,-24.60167763148464
20.255995014095003,-17.797218417226908,-5.891764484022676,-45.667020902175665,-40.19283500835401,-41.39450876610757,32.50768806661435,5.667658581042509,-44.39882482821387,49.800287497962614,-22.028185107979507,-2.6712409325195376,27.44381682347504,18.330451619137666,-11.793875501337974
20.258262567834013,-17.560221060895998,-7.383863645221654,-46.30285925443499,-39.570634704790244,-41.07117779347466,32.01413892926677,4.745217771063084,-43.466542005649025,48.554176023688996,-23.297352573599092,-3.1034010019980585,26.256059127383335,19.514453394536954,-14.995365853379635
-10.594018042906349,17.988981815196787,37.90870278046095,-47.73239588011647,6.591381214788994,-21.26950372204403,29.16464628395677,22.71107997169175,14.0378871685832,-3.0943567663894815,-18.030126920448634,-21.67103513344551,-0.8149786687731063,0.8049796908724567,-0.6446870151530966
-11.949528002425843,18.228426739472578,38.56237237744352,-47.76749948031613,7.074489668659429,-21.634001481181027,30.38503195969352,19.748818161606486,14.491143461672035,-1.580328256651225,-18.482985832245518,-22.1566838309691,0.15124531091249893,-2.163812578014069,-1.5838627217746049
-10.608615202938983,19.4966101338669,39.172072202283395,-47.06660044749254,8.062028364138834,-22.61751428137453,30.957930429861666,21.145066040500613,11.519586735109302,-1.9986407851265284,-17.45945091894206,-21.83547599010612,1.8280165423712482,0.27777693233282785,-2.5891542398726717
-11.95466245543135,18.55837939146516,38.20983758949337,-47.84607087615509,7.7334490653702215,-21.352178773902722,32.140957077622815,19.843122637406843,13.628125882985158,-0.5029950310080837,-18.89629376219441,-22.476947185330634,-3.2229550622941145,-0.4977058483992418,-0.703930216208881
13.093268014730159,-25.630952469142322,-13.670423064415377,-11.22482989682162,36.76787136635133,32.728478779869214,-45.31263341217441,42.26036515685284,30.72208154131976,-25.315231529626626,46.97553092296804,13.926588125246239,9.571404705459134,20.920987826376315,8.464876536105137
12.811459804804452,-24.44129273961666,-13.595034668786413,-9.229188642563182,32.69715099146748,30.676429065442235,-45.79763221875106,39.87733526639847,27.976407349502242,-22.885490191545497,46.479158777922095,15.835844156415712,7.830510053986354,22.60703493078676,9.569742552882559
-16.873289134646857,-0.9604881171551296,26.280312174888113,40.22664580355551,38.492647368782194,-3.6435050258120434,-14.798345639102884,-15.466964514262797,-39.28268491019482,-50.213195492823736,-20.115100826662925,18.695129850150458,-0.8317059860687386,-30.02888371049957,-9.729310229726087
-11.179650091308249,19.705223696071187,38.34248270761971,-46.40348636371989,7.7493212731608745,-20.26586442067936,32.500459197195504,20.632669395964925,12.672714939157288,-1.4596569463669922,-17.746472006929828,-20.82419672735566,-0.20661336855344747,-1.5651028185306277,-1.871325236981868
-12.963234669937851,19.71095382731803,36.67229040232781,-45.82842085057126,8.55990112653571,-24.049507829124764,31.813388713874925,20.415895199766194,14.56336819371805,-2.426665792354573,-18.187588490700712,-20.94660618397808,-1.2071462475254873,-3.1373482997999,-0.9777204516593029
36.85589821594646,-24.160613417003724,18.547181005810938,4.348635078382512,-17.73812662103574,42.290470661287394,-45.22710563714095,1.6922837323140814,34.947607577625945,45.80127572403344,-27.670879097483777,-33.15775788308339,3.106161567341129,-4.22844287323803,26.64998569780698
18.886971240867176,-20.983907526075345,-5.549964248700397,-45.199837520229245,-40.80519935342674,-42.19054489004759,31.661584682191265,6.103764828249203,-44.46089614094419,47.593838923323155,-22.482458680610332,-4.136383729569095,26.593137901831447,19.560727716316016,-12.601896891000383
37.45550933250324,-26.200768768071992,19.95912229336878,3.9481968550432534,-16.24543526446419,42.26182439063335,-47.53281864592826,3.6219106934359373,37.28738481543453,45.03935555753977,-27.91809736913208,-32.69645268185417,1.8012777584314739,-0.9739178554645154,25.93434332809335
-2.0720294385479225,3.8225081694871594,-9.924703183865898,19.77100868336633,-34.60040690134174,38.274452847479374,22.00544292363447,-3.7935538364717445,14.374108168600348,22.179794865071482,-28.933607657319236,2.8792747605403743,-42.94926655052433,-4.283974636939499,-25.833618769708785
-10.219075762797459,17.650040031307817,37.199404878431565,-47.742156119321926,7.245946840973706,-23.438354173487983,32.304372794574896,21.145124607084796,12.484289738423954,-1.147857210869952,-18.60780077007496,-19.693481656960486,-1.7502682647734553,-1.9107109489766407,-1.3704312434655765
14.885051914785176,-24.89789436603689,-13.459223060127833,-12.35866507203718,33.976211241216475,33.05104037408175,-44.78852358368916,43.17277525379522,28.838144046493845,-22.713491850085312,45.54599114525478,17.550318704806305,7.82150645818944,20.701989549641997,11.370581110339646
19.817355866316294,-18.66426823304406,-7.262971555206519,-43.931030368018206,-38.06315451241274,-41.79828365816645,31.992894973690706,5.067753015934943,-44.58286191716148,50.47770375143862,-21.095101688525485,-3.604898810574078,27.6710677186044,22.267804669330815,-13.044675683156036
18.75434163883727,-19.19607466276374,-8.017154193525963,-45.333739486272165,-39.141841176194454,-42.22838346659057,32.628920100078666,5.3817060308998075,-43.585265083390674,50.05001424969853,-22.993035148807245,-2.3754919924723255,28.291655112403163,21.164527568944635,-13.909465706219066
37.7721053245722,-24.469324969179276,19.274361580105307,5.842387336403559,-17.765029439831537,43.90062066999635,-45.57291086123268,2.626920793038806,36.5328998274148,46.9812624023131,-30.178155867632217,-32.48868457200481,3.750655830062387,-2.078973433897028,27.42391759702159
37.03949561399027,-24.243677792114365,19.237962784709794,4.186706340817041,-16.11339598064944,39.72734247034625,-47.55853763461627,1.42225639580926,36.47178361320482,47.128574053128325,-28.365233008228035,-32.87017465352241,3.0211202044150096,-2.381309059350939,27.530345775306014
36.70477561960756,-25.945867868785935,20.622447923633526,4.416800307404948,-16.774945200059395,42.411780247555775,-47.76631139582614,3.5306429983089638,37.043751930252284,46.91842174648784,-26.828789339646686,-33.65158631360772,0.6399889698388534,-3.534231009398408,26.99653175608362
-0.6432715800181619,1.935669416962524,-13.424297958540816,19.569404608458967,-36.50299308550371,38.40912606682956,22.21125434229732,-4.327261739492948,14.753462349460696,20.5388202627784,-28.68152797425835,1.1102730483611656,-42.66815127544813,-5.828728531758898,-25.52790848687373
-1.2665094199992861,5.637361443063485,-12.091066080691048,20.412296080139726,-34.28473697817117,37.09760933280581,22.725414476374006,-3.0458133584124196,14.220532209505171,21.865204366784972,-28.705599043589146,3.345922918147042,-41.81217266269648,-5.195028252474148,-25.257365506617873
-0.8381072125401539,4.328549186065361,-11.050263927131052,19.364819613918627,-34.818731252511846,39.06173533929395,23.792881261042965,-3.3942543240963183,13.64706214234005,21.02750528824519,-28.62074438524596,4.189035993468255,-42.8159983807741,-5.764220455940459,-23.99964682595459
-11.377861190555041,19.867445672167108,38.469238342445514,-46.28632508825632,8.44704256010244,-19.832658156129558,31.698397076237192,20.081819408993777,13.299213338664437,-2.0401605781386656,-16.43958373971094,-21.994176316008893,-1.1669510390305926,-0.03012980474530924,-1.2256372301253677
12.852107568160498,-25.053305676463143,-13.684169725080526,-10.231603448956127,35.08693707192936,32.18407451345288,-46.45533799500408,41.64288631209111,28.15956804524859,-23.016982059505793,46.16097467523915,16.064694784094517,8.73127021861526,22.48756612095015,9.755756958701097
-14.466882685543597,-0.2687540447694813,27.348159712419264,42.333391658447695,35.440036701764214,-3.951073147826027,-17.875834870967612,-16.23791730734985,-40.80474426974942,-48.58108306933865,-20.480672351718294,19.84199691004038,0.049990025842750585,-30.118588571048804,-10.87343695241406
18.374718376700052,-17.71230211197591,-7.740781688539731,-45.457551097591214,-39.678888867868416,-41.46401863256753,32.44479609523474,5.06677375932481,-45.336506163156464,47.55608178044708,-21.987373674414137,-3.8513047315165774,28.425094815190945,19.919009073951496,-11.645875133586353
17.98461530443014,-18.69688753777073,-6.7236742012816455,-46.19624254055285,-39.90090894027222,-42.063270623973445,35.2627197762966,5.70806087785732,-44.57477033218517,49.29071357602217,-22.634256294923045,-4.514074530102093,27.327148458765492,20.733605467154202,-11.81032460218732
-0.7952616447591944,1.4229758864985627,-12.059769958367035,20.44208005022387,-35.26958295546295,38.34894292957105,22.722048492321587,-4.154086990540687,14.789850616208506,20.572432957418265,-27.957505856242054,2.016783642163422,-41.64951203887413,-4.832989745994067,-26.52467179880823
37.92289406037041,-25.083330711251996,18.055867741569152,3.7115758602914917,-16.69455783686909,39.31594905505048,-46.20000624692036,2.4898208414587533,36.88951446214545,46.167533895725825,-27.527544421537886,-35.33190277460776,2.913143881353555,-3.8115934071888726,25.950558303448123
18.522363025890634,-21.26396258563681,-7.244973757870803,-45.99406452073993,-40.79514667941504,-42.310261289477204,33.20574815854886,3.404677007638964,-44.04331019612961,48.28637264638361,-21.584073947371444,-2.0042593909748025,29.17455748175895,20.194147389943463,-13.252781532407944
-0.9369237070264465,4.225046675579483,-10.945631464784793,18.654274368391007,-34.38459742604512,36.12961568683773,22.586259875572196,-3.0545966748639737,14.382134575066221,20.796272711879855,-26.04917135195015,4.48522448235771,-41.64626246738614,-5.418514569216499,-25.036270585428646
36.43212269505488,-24.646505737779563,19.89906456644621,5.144542578823155,-16.113303260578434,40.63712346641133,-46.61560569029159,-0.18618704654119878,34.75721238364847,46.3605881447631,-27.16010098418822,-33.412525141830386,2.713470955689192,-2.819097312219611,25.35745566318659
-9.98881528730182,17.459302399860047,36.10627525036123,-45.610739418750754,5.678429666296189,-21.69224078370906,32.020277616724734,21.683181890306965,13.83272873492535,-2.9802466628778363,-18.46485307646093,-21.136663808419634,-1.816135792276607,-2.288496587621334,-1.8047809503246384
-10.309359922923992,17.993990094739598,38.24845846269959,-45.93702583709984,7.391680129504327,-21.698600381498306,30.84882871027648,17.64920200023382,13.09381069594025,-0.3344796925544016,-18.651538702106958,-21.651108367031984,-0.2626016899425444,-1.200791251107195,-2.4759196301357234
18.780134142990484,-20.27447251817467,-8.074926553440614,-45.258828890061636,-39.780712815404534,-41.63666114166388,34.185684346210635,6.311311850729713,-44.559017610648766,49.695803333509566,-22.021142867617023,-3.066446997988308,28.719009421201882,20.907901054505956,-13.419341252032046
35.63888993688327,-23.441707551060258,18.513218181016235,5.636167972075881,-17.79051644198265,41.34625183578889,-47.46383807777886,2.472273701476603,36.08215585536518,46.684425668843254,-26.555604327419942,-33.081097101109954,3.0563652363580336,-3.000998675219228,28.369633560611053
-1.9122815624877294,3.10733068981551,-13.407357086182971,20.128351170040613,-34.28562426357643,37.993110747916624,21.679517471824926,-3.086859446084286,14.38276490004323,21.94409662365871,-27.1694212676605,2.2901984541507643,-41.72497528249707,-4.382908896086057,-24.038162804794812
-1.2799032856347383,3.06358553284112,-11.37561980179612,20.75535073226885,-35.49971904500358,39.588713253306544,21.57505038263547,-2.966924470171122,13.899695982296523,19.230737503737213,-29.40435292629269,2.7275975928643352,-41.9424722636253,-4.435970822296242,-25.496786689967813
-10.573321089074565,19.9453371665264,39.23593446466121,-46.57758055856211,7.984161744648554,-22.553314484842243,29.840455172993675,20.505217724369,12.890640217964737,-2.477477814408663,-17.60378197875307,-21.748394464164367,-0.37497448015217316,0.9348176197505089,-4.020932998695368
-10.197746217530517,19.971294453776178,37.454912732775334,-46.88574566986433,9.001822865543351,-22.134135708501848,30.007036853421756,19.88361232311574,12.390500072439801,-2.0491875980696816,-16.88491055771766,-19.768259710853915,-1.4277713983453948,-0.5041282939912519,1.1487879974653543
-10.055574081421048,17.74523639470689,37.50010898369776,-46.571287359243605,7.77992977164136,-21.649388454858826,31.08282232070345,20.417644438935135,13.00924155516718,-3.1226106168125196,-17.983936552074073,-19.88379086213998,-2.6367295286851853,-0.39252197786375964,-0.6797923098566037
18.92600596808835,-18.93038162824165,-7.680791022059507,-45.722957723313755,-38.91443698642776,-41.59048261835863,34.05203466495331,4.232651247756691,-44.64414496707658,49.67515936581474,-20.810194653703846,-4.727930780961702,28.45634422220184,19.239790803142746,-13.407287214321581
18.991699245111406,-19.61000573251767,-6.27797519362383,-43.88649025230095,-38.09280756572507,-43.69667196360928,33.90142052604304,5.250799436166854,-45.73000057760702,46.91651465785087,-21.406795236454087,-4.605669948467354,28.196280021297817,17.769394478704868,-13.794386948780973
-15.731188258373065,-1.6911324546980753,27.37521730661757,41.76234117689054,34.811354333189726,-6.17188601436165,-15.32744502633235,-15.132540231166304,-38.98889743978488,-48.437366055315835,-18.774794691730282,18.749373546826476,1.3566205636031834,-30.979291797302523,-9.093703371749259
38.23038589474162,-25.132178627384977,19.661687517111066,4.320263835393048,-17.322243940687567,42.19304402126878,-46.855896700331314,1.400396170655593,36.37598507999558,45.514200092755026,-27.51027801328157,-32.15442614176907,2.460441911583951,-0.9542615434739985,27.983080588195936
-10.315416439377671,18.235796556253344,38.339108912321976,-47.12395780619537,7.9342822007204825,-20.389915067896172,32.24257218975582,21.829097836342008,12.085973878000631,-0.7222543441951061,-19.332306426764067,-22.3035865890077,-0.8302743024132255,0.18803693391492438,-2.3028453055287583
14.318974024871302,-25.497355175024815,-13.541451854694746,-10.600358168650125,34.34184539593065,32.57272037026723,-43.28890002384608,43.20815046538351,29.026453355252368,-23.726593980245152,46.03738199825831,16.96525936936136,7.973968037791991,23.35687412791651,11.296294509730737
-9.837406375707168,20.738034962739473,39.45968207744061,-47.296301496232374,6.915999723032713,-21.72258725976657,31.27334649041964,21.127788927690993,10.158942643955331,-2.264673455248848,-17.117467498305306,-20.05225832377352,-2.534078212005312,-2.2926307857069315,0.16344115096426304
35.81061269456921,-22.615870822481718,19.520863724821552,5.665288754695295,-17.244815376180206,43.00684948851285,-48.664554625255214,2.271273567033816,36.61097313339927,44.88706431959366,-26.69905289699153,-34.28951596457734,2.607864853334699,-2.8675217703295384,27.825742555227645
20.252846107193665,-19.743523708727757,-6.64294409948015,-44.015299175929165,-39.12077059376992,-43.755945314654916,33.59906279683789,5.313186275448828,-45.82693738020809,47.78345618358509,-23.28857542661429,-4.437695344841366,28.072726200923782,19.09009784874806,-11.340416503565898
-0.8293752922699584,1.3575377064838554,-9.80925337117161,21.343091814409437,-35.7878655867672,37.99808977797007,23.768367194531816,-2.6683295460609444,18.36011889192031,19.585412189698285,-27.12540324431618,0.3343603884541029,-43.60787361578601,-2.2070808509063706,-26.05377853524198
18.89610444276621,-20.63604638859258,-7.2209660247091545,-45.008620060295335,-39.62280280132299,-43.46589556006716,31.441012843481886,4.858980136396443,-43.502292495393306,48.37860446849061,-22.10526214807441,-2.902830748996429,25.456029089922495,19.868723014217885,-13.41941160992843
18.652967132959713,-20.144722487729098,-8.612421350315257,-44.5429790846138,-39.750736541199075,-42.5311722154404,31.942706086035397,5.167142943148225,-44.45619875975561,49.557240151135105,-22.693292297926256,-3.5368276992616514,27.00053042855451,19.1496864377474,-13.868793350542848
20.365811557232036,-18.452802139859816,-7.648770099789179,-45.40273615285177,-40.1064938577497,-41.01906351297591,32.46794732164585,4.614698306255636,-44.33000590333851,49.85466806000589,-22.864617765158126,-4.321349715438972,28.1696539583538,20.327479704469724,-13.26154019568491
12.639613500371675,-25.73305203944866,-13.878843452406295,-11.98130603309218,33.79901605107755,30.213532310150374,-43.387752776522284,43.26717445226804,29.065943691289252,-24.151045279996037,47.70080304302213,16.070127209745415,8.619966477330397,22.44878214933251,9.179509729800323
-15.490656654766262,-2.8366105967244506,26.25488233357666,40.26417543756151,34.66477357605564,-5.7342961420573575,-16.23626448676433,-14.802508058687401,-37.828505863426884,-48.63029821351011,-18.983208904432722,19.800205270619493,1.6599171460363296,-30.980702106883303,-9.925857863691045
-11.610245973467398,18.649237475838873,37.58215087065843,-46.82185663022678,9.10756972952142,-21.139545111594295,32.40414302626997,20.982603996333772,13.13938862956661,-2.90476991025032,-18.3579176535104,-20.313712052070642,1.2397964573054971,-0.47556174217137537,-0.9197027894902733
18.216075657352743,-20.289418708078653,-6.915779662680692,-45.41406763336556,-40.75363145673452,-43.493745373472386,32.598814274133716,5.417313132669376,-43.35969710313428,48.41102861531189,-21.325390427460636,-2.656948783147317,31.405798627148798,21.583151518106675,-12.92273713493417
-15.230451652422845,-1.2264001617571254,26.01624481549033,40.860248745700076,37.66563244013464,-5.68840317556023,-15.70091083057589,-13.974385298260945,-38.08130949313967,-48.7792902045495,-17.315686584180195,19.972362765077367,-0.3544968548496368,-30.902222168860263,-10.234272413226876
-14.81126835243089,-0.884893918020032,25.889565674856588,39.94051771559671,37.2835590909015,-5.587541010593355,-17.211900554054875,-17.178727322715353,-36.980815697325994,-47.739583975608845,-20.50151241444775,17.460197475480896,1.08019171203135,-31.446396834732845,-11.135132233268134
-2.812803740530141,3.4536793643157635,-11.366780457591863,20.006481500778783,-35.45418626368883,37.88446104785292,20.741424700620307,-2.372399267975508,15.16829706468603,21.128747790491584,-27.122219767306948,2.6337876151217077,-42.41713689649393,-6.445028369959382,-25.254129007090206
12.617009253343259,-24.887128923456014,-14.38569636739615,-9.612148724680623,35.12406863886552,32.20605889496782,-43.62142902387138,42.856360150917965,26.610720002444232,-23.37911832719898,47.32361102638618,14.234413262808568,8.462057476595989,22.624978359350063,12.11763051234762
-1.5770748535370416,4.163426674625494,-11.852645630540827,19.785726852127432,-35.77170095887088,38.82137932278704,22.11613131636781,-3.6455973761258966,16.027660613761732,20.718160847459696,-28.91026035204052,3.949985544596943,-43.26215745253143,-4.627471808132278,-25.390720683227155
